54 200
apple 0.182174 -0.152816 0.575118 -0.064108 -0.085532 0.225656 0.303938 0.156360 0.066981 -0.145846 -0.347866 -0.232206 -0.195769 0.009198 -0.030425 -0.290265 -0.032064 0.103715 0.186396 0.247794 0.185536 0.218575 0.029821 0.144197 -0.112276 -0.365193 0.127116 0.329771 0.199097 0.020100 -0.056342 0.027764 0.105567 0.059008 0.045559 0.104220 0.006414 0.009969 0.055255 0.332062 -0.034831 0.137437 -0.063928 -0.113245 0.378039 0.413060 -0.098556 -0.140422 0.080249 -0.021339 -0.095225 0.053135 0.218642 -0.197836 0.207844 -0.029514 0.328448 -0.153545 -0.042129 0.230969 0.021615 -0.179907 -0.029908 0.089336 0.232698 0.065141 0.250265 -0.519564 0.127241 0.066494 0.081378 0.052655 0.120928 -0.143018 0.071967 0.100362 0.551049 -0.148084 -0.191822 -0.120474 0.206141 -0.214616 0.078207 -0.055640 -0.105618 0.223681 -0.048734 -0.184496 0.206271 -0.107073 -0.043158 -0.088090 0.031196 0.136372 0.122055 -0.119348 -0.126407 -0.151541 -0.070703 -0.061922 0.094577 0.099125 -0.008032 0.146080 -0.314554 0.126037 -0.086793 0.064328 0.039467 -0.230848 -0.063475 -0.015675 0.381284 0.123303 -0.188705 0.166412 -0.125878 0.043429 -0.157590 0.115314 -0.105038 0.233314 0.052549 0.097751 0.291738 0.162491 -0.102717 0.016564 0.180540 -0.177562 -0.085308 0.100774 -0.136246 0.043243 -0.124626 0.075487 0.250226 -0.364929 -0.386131 -0.640410 -0.275274 0.141412 0.095374 -0.199559 0.182814 -0.044927 0.122580 -0.023302 0.249687 0.065293 0.019445 -0.337815 0.063602 -0.141858 -0.144701 -0.129222 -0.218395 0.144813 -0.064145 0.053504 0.327576 0.175731 0.423101 0.057741 0.161905 0.174448 -0.051586 -0.160402 0.114290 0.094994 -0.182502 -0.236025 0.058053 0.118741 0.173694 -0.013199 -0.026234 0.309752 -0.074287 -0.137891 0.110534 -0.017607 0.060544 -0.314847 0.124589 -0.235380 0.012700 -0.014807 0.122760 0.001067 0.089940 -0.200111 0.059903 -0.220254 -0.130050 -0.061351 0.255626 0.056568 -0.023576 -0.183760
apples 0.331779 -0.236519 0.237071 -0.131822 0.126060 0.124740 0.096254 -0.054041 -0.279108 -0.124104 -0.339551 -0.279421 -0.488066 0.105796 0.224099 -0.372753 -0.037892 -0.013405 0.366374 0.111406 0.458061 0.218337 0.020306 -0.265264 -0.136458 -0.308834 0.132429 0.064059 0.195695 0.079310 -0.076246 -0.226003 -0.089097 0.132635 0.232805 -0.340804 -0.088324 -0.279082 -0.083535 0.028293 0.226900 -0.059078 0.196558 -0.257847 0.582695 -0.028463 0.162283 0.255439 0.077253 -0.108571 -0.046313 -0.067189 -0.105841 0.035783 0.105227 -0.184615 0.265667 -0.121072 0.026937 0.176566 0.095636 -0.408398 0.413845 0.045903 -0.119380 -0.028372 -0.042059 -0.200839 0.311531 0.356436 0.007778 0.018445 0.121811 0.019226 0.150925 0.062414 0.022499 0.279385 -0.338629 -0.111496 0.226016 -0.451266 -0.315271 -0.047675 -0.300800 0.105872 -0.051354 -0.076273 -0.077716 -0.307471 0.064535 -0.022694 0.103159 -0.205935 0.041644 -0.484967 -0.137549 -0.344772 -0.386675 0.147933 0.184204 0.180478 0.050134 -0.102806 -0.348895 0.343611 -0.284855 0.289944 0.285016 0.207856 0.036745 -0.237337 -0.102009 0.067674 0.045425 0.050063 -0.151785 0.172029 -0.082909 -0.112617 -0.157013 -0.333999 0.244509 0.159088 0.372328 -0.356897 -0.160452 0.042909 0.444247 -0.140605 0.009209 0.145084 -0.218850 0.305564 0.147225 0.135009 0.175160 -0.036287 -0.342973 -0.223841 0.176310 0.087006 -0.213501 -0.285220 0.063687 0.121313 0.085309 0.193674 0.260100 -0.100834 -0.168850 -0.340246 -0.236587 0.199017 -0.179894 0.282820 -0.064874 0.281468 0.014714 -0.129750 -0.103097 0.126763 0.270401 0.290907 0.055185 0.183946 -0.163372 0.124533 -0.097890 0.000636 0.285070 -0.193109 -0.171272 0.067282 -0.256897 -0.212111 -0.026023 0.336900 -0.088473 0.349112 0.409837 -0.054529 0.113051 -0.479909 -0.142219 -0.287423 0.096907 0.071091 0.062042 -0.057185 -0.204279 -0.260385 0.233276 -0.154836 -0.229068 0.072765 -0.110740 -0.112133 0.112851 0.244554
baby -0.011318 -0.295830 -0.144541 -0.162863 -0.071692 0.208356 0.121311 0.215043 0.122571 -0.258126 -0.347388 0.114917 -0.202157 0.018348 0.195703 0.098425 0.182868 0.054066 0.179323 -0.091799 0.234939 0.149375 0.286748 0.201696 -0.267424 -0.170168 0.112601 -0.035205 0.198525 0.131417 0.200567 -0.069348 -0.099291 0.024765 0.092651 -0.100315 -0.037324 -0.023714 0.215730 0.005409 0.325367 0.211517 -0.238050 -0.233539 -0.028560 0.138696 -0.193535 0.159605 0.049428 0.079969 -0.000060 0.099174 0.031133 0.054501 -0.004091 -0.088809 0.028078 -0.139109 0.058206 0.056123 0.219631 -0.261040 -0.004801 -0.052444 0.227758 -0.009684 0.122630 -0.222970 0.097780 -0.013455 0.063862 -0.045234 -0.146661 -0.093666 0.153383 -0.297102 0.116559 0.263192 -0.108784 -0.213437 -0.241643 0.213327 -0.253458 0.118671 0.037701 0.240351 -0.352155 0.145059 -0.054817 0.169588 -0.017640 -0.100338 0.251795 -0.432174 0.194269 -0.182136 -0.083401 -0.123653 -0.055551 -0.000030 0.188056 0.033845 0.044885 0.068333 -0.037186 0.002437 0.023624 0.176848 -0.082852 -0.029288 0.072322 0.019520 -0.321702 -0.117533 0.213525 0.044768 0.006302 0.244677 -0.064550 -0.163767 -0.021822 -0.213954 -0.310769 0.090080 0.034524 0.287608 0.119425 0.188760 0.071144 0.083307 -0.180675 0.071115 -0.033773 -0.107461 -0.238425 0.040508 0.059549 -0.098523 0.126436 -0.010634 0.007456 -0.035849 0.170182 -0.136992 -0.211072 -0.062085 0.126978 0.086983 -0.087246 -0.004134 -0.048656 0.013518 -0.159266 -0.156887 0.204972 -0.109278 -0.259406 -0.173102 0.003213 -0.219465 -0.025977 0.412789 0.036697 0.071039 0.232641 0.228317 -0.324543 0.126642 0.165848 0.005935 -0.066685 0.107296 0.189282 0.262516 -0.084782 0.149861 -0.138717 0.148839 0.248787 -0.016164 0.426604 0.223624 0.118341 -0.310726 0.010916 -0.245582 -0.007279 0.045373 -0.022521 -0.056922 0.187283 0.188096 0.190257 -0.120099 -0.330344 0.078369 -0.090341 -0.191327 -0.022289 0.094116
babys 0.147423 0.029370 0.191730 0.245224 0.308791 -0.183711 -0.179444 0.326101 0.228976 -0.198002 0.018380 -0.326930 0.141258 0.126247 -0.388986 -0.283087 -0.008835 -0.420219 0.268866 -0.287534 -0.002819 -0.013853 0.292959 -0.435408 -0.405682 0.341162 0.026865 0.235357 0.176714 0.070400 0.361054 0.128625 0.302814 0.061444 -0.138455 -0.407768 -0.409004 -0.191049 -0.096491 0.464117 -0.425287 -0.042874 -0.315233 -0.279530 0.301331 0.276132 -0.262138 0.237708 0.227124 0.336162 -0.091211 0.048107 0.460541 0.050482 -0.184380 0.015149 0.134590 0.039635 0.084104 -0.173459 0.038455 0.078768 0.057756 0.091950 0.325040 -0.078952 -0.016969 -0.365278 -0.291751 -0.134120 0.049694 -0.210000 0.141427 -0.061290 0.181197 -0.033738 -0.434905 0.278018 -0.064307 0.248489 -0.150349 0.251590 -0.095500 -0.332459 0.217105 -0.012179 -0.097957 0.052437 0.404017 0.064776 -0.129273 0.398205 -0.285915 -0.230226 -0.031257 -0.233941 -0.482094 0.163810 -0.216951 0.002333 -0.238041 0.512619 -0.116310 -0.110626 -0.535603 -0.003706 0.385774 -0.236028 -0.350885 0.040845 0.088030 0.272521 0.196374 -0.294127 0.196250 -0.210863 0.067681 0.280660 -0.226299 -0.320532 0.233156 0.199562 -0.231624 0.213870 -0.292365 0.067559 0.233619 0.028311 -0.164545 -0.122922 0.213139 0.030151 -0.108231 0.020404 0.084117 -0.295803 -0.137411 0.316235 -0.036107 -0.203371 0.262023 0.193756 0.324396 -0.216685 0.111086 0.110446 0.146732 0.120523 -0.084353 -0.019329 0.115715 -0.065848 0.002903 -0.201854 0.217617 0.346218 0.078866 -0.201822 0.385090 0.475014 0.042974 0.042633 0.133070 0.233368 -0.035301 0.058491 0.031821 0.464332 -0.446148 0.418524 -0.294776 0.283121 -0.100519 -0.233312 -0.037018 -0.367173 0.156186 -0.012616 -0.174881 -0.224837 0.219027 -0.459809 0.227637 -0.083385 0.191694 0.215983 0.295665 0.000008 -0.410230 0.320380 0.316922 -0.392847 -0.239027 -0.118494 0.351240 0.083402 -0.117762 0.566406 0.007131 0.221892
bird 0.031603 0.220890 0.230160 -0.020215 0.066607 0.129062 0.354564 0.337106 0.224012 0.034455 0.133876 0.362255 -0.129299 -0.027752 -0.024200 -0.044595 0.206569 -0.005794 0.049636 0.250815 -0.048345 0.005742 -0.097929 -0.100017 0.072256 -0.197825 -0.244930 0.137662 0.095801 0.160285 -0.044651 -0.196139 0.110018 -0.045321 0.129529 0.181171 -0.018307 0.220600 0.220475 0.073884 0.116430 0.029347 -0.204417 0.041127 0.004381 -0.071322 0.005438 -0.058455 -0.086796 0.353796 -0.361182 -0.094213 0.199576 -0.216952 -0.183278 0.019663 -0.115853 0.176063 0.090591 -0.074897 -0.057967 -0.363335 0.067745 0.105547 0.278475 0.206163 -0.126690 -0.226568 0.359395 -0.004006 0.293825 0.119369 -0.077260 -0.167049 -0.095465 -0.169054 -0.122863 0.064138 -0.075848 0.067927 -0.350230 0.221706 -0.331335 0.064296 0.147530 0.228505 -0.140131 -0.103409 0.136855 0.062346 -0.301219 -0.108707 0.342471 -0.256202 0.106332 -0.261367 0.052262 -0.191365 -0.266844 -0.049594 0.435868 0.139513 0.251856 -0.014891 -0.019651 -0.213445 -0.077030 -0.133373 0.367299 -0.037265 -0.009696 0.088249 0.006638 -0.022698 0.338451 -0.155926 0.139389 0.057313 -0.175276 0.182756 -0.305043 -0.425013 -0.188455 0.055964 0.073628 0.353147 0.061978 0.078882 0.244311 0.028282 0.039828 -0.052210 0.021691 0.129372 -0.330899 0.194090 0.300422 0.128248 -0.301378 0.158271 -0.034761 0.111750 -0.229172 -0.468290 -0.125328 -0.062207 -0.117881 -0.005905 -0.272467 0.034993 0.079928 0.102759 -0.414713 0.037658 0.014864 -0.131531 -0.179811 0.163293 -0.115180 0.130687 0.094437 0.094361 0.324876 0.369812 0.272836 0.073747 -0.131522 -0.144695 -0.290242 0.285855 -0.457304 0.064620 -0.069827 0.245130 -0.308135 0.178672 -0.022865 0.159935 0.005715 0.191777 0.145769 -0.414544 -0.209097 -0.225329 0.069084 -0.037255 -0.105662 -0.014341 -0.126802 -0.024155 -0.194619 0.093690 -0.307623 -0.125214 0.252774 0.013199 0.017714 -0.101091 0.123655 0.181774
birds 0.244806 -0.013818 0.046038 -0.085795 0.044171 0.499426 0.302817 -0.131352 0.042353 0.145445 0.158863 0.259377 -0.081338 0.026471 0.004972 -0.106743 0.038495 -0.162420 0.200775 0.316044 0.021532 0.114534 -0.313380 -0.272824 0.049281 -0.201302 -0.165264 -0.128069 0.143503 -0.145529 0.118558 -0.069547 0.124739 -0.052556 0.231995 0.005238 0.131990 0.275483 0.279467 0.077965 0.134278 -0.152613 -0.084357 -0.088860 0.189817 -0.041048 0.203298 0.107251 -0.008516 0.417891 -0.216428 -0.034874 0.065439 -0.006622 0.211393 -0.017635 0.003371 -0.002068 0.147565 -0.026696 -0.114296 -0.299975 0.285218 -0.249136 0.286528 0.262873 0.175418 -0.171468 0.266939 -0.113697 -0.000763 -0.025889 -0.051224 -0.057880 0.057886 -0.123973 -0.119349 0.056591 0.005161 -0.186164 -0.542977 0.108159 -0.290281 -0.141360 -0.178054 0.332920 -0.304778 -0.226329 0.174726 0.065188 -0.124931 -0.228328 0.255426 -0.260128 0.068537 -0.292612 0.073291 -0.125924 -0.512468 0.085296 0.326567 0.001623 0.358825 -0.145175 -0.286038 -0.155663 -0.075408 -0.381100 0.313711 0.184295 -0.001662 0.192349 -0.136881 0.057480 0.299820 0.084483 0.091227 0.362174 -0.092720 0.075647 -0.110237 -0.385955 -0.076483 -0.025114 0.056679 0.267110 0.216790 0.175102 0.343796 -0.248412 -0.036215 -0.028950 0.212561 0.177013 -0.319292 0.085829 0.306610 0.083553 -0.197364 0.185715 0.300361 -0.018899 -0.108833 -0.414776 -0.027252 -0.113517 -0.061844 -0.096987 -0.205008 -0.134229 -0.107316 0.094948 -0.394702 -0.006707 -0.060905 -0.014538 0.253907 -0.045768 -0.015036 0.171088 -0.155806 0.043584 0.450625 0.107817 0.195046 0.201642 -0.167707 0.015867 -0.063957 0.195593 -0.089003 0.015152 0.001372 -0.042903 -0.306132 0.178392 -0.045921 -0.127912 -0.191755 0.217807 0.152999 -0.167623 -0.218360 -0.256282 0.103549 -0.016702 -0.021767 0.091044 0.008098 -0.107148 -0.262621 -0.085461 -0.039070 -0.152298 0.048977 0.262834 0.022984 -0.137744 0.085318 0.383158
cat 0.008981 -0.188344 -0.076404 0.040202 -0.032187 0.181052 0.058258 0.104516 0.145538 0.039285 0.025225 0.212217 -0.065721 -0.009188 0.105926 0.050708 0.214724 0.022938 0.243734 0.227044 0.256459 0.202982 0.189055 -0.018208 0.153138 -0.241308 0.159374 0.124174 0.160165 0.181818 -0.103000 -0.140511 -0.152196 -0.100843 0.142559 -0.048614 0.089709 0.065636 -0.038844 0.078935 0.097072 0.069881 -0.102255 -0.233245 0.028167 -0.032582 0.102186 0.042768 0.046920 0.352592 -0.105560 -0.087991 0.220405 0.084627 -0.004976 -0.284986 0.007059 0.033342 -0.062517 0.041891 -0.108462 -0.093483 0.154348 -0.099306 0.218148 0.123241 -0.101499 -0.168088 0.068165 -0.331075 0.040658 0.116172 -0.063452 -0.147319 0.106826 -0.160287 -0.058834 0.095203 -0.294120 -0.035732 -0.307906 0.255702 0.039227 -0.073999 0.161298 0.198494 -0.472575 0.072891 0.076616 0.210630 -0.030699 -0.129949 0.036175 -0.287588 0.251681 -0.217429 -0.049904 -0.085431 -0.006635 -0.000822 0.046172 -0.033738 0.229770 -0.023292 -0.268380 0.098129 -0.061822 -0.049324 0.224625 -0.048083 0.034654 0.138519 -0.128464 -0.041938 0.167436 0.182468 -0.041064 0.395047 -0.119413 0.055313 -0.102549 -0.073919 -0.132067 0.288805 0.073388 0.239223 0.022577 0.239923 0.027431 -0.078688 -0.140566 0.074749 0.086775 0.114900 -0.159371 -0.195275 0.226747 -0.119017 -0.075115 0.091667 0.125974 -0.022154 0.214783 -0.117562 0.098906 -0.118005 -0.046249 0.079274 -0.004333 -0.111876 0.049563 0.009763 -0.208228 -0.006435 0.057554 0.073527 -0.017396 -0.092896 -0.092867 0.175749 0.067511 0.303828 0.096273 0.011255 0.235983 0.277405 -0.095456 0.107821 -0.042941 0.038667 -0.183656 0.150284 -0.117176 0.104492 -0.219240 0.052193 0.062059 0.184770 0.061189 0.003021 0.217257 0.049816 -0.036913 -0.416730 0.012452 -0.079953 -0.184832 0.051480 -0.051124 0.034389 0.052689 0.030763 0.070652 0.000317 -0.062397 0.018761 -0.056304 0.042690 0.018478 0.202629
cats -0.089142 -0.076346 -0.105260 0.110240 -0.264870 0.444595 -0.202525 -0.430693 0.085299 0.194142 0.116754 0.084532 -0.104580 0.174474 0.330335 0.212227 0.272163 -0.127077 0.121186 0.102300 -0.107990 0.152029 -0.152910 0.077449 0.004255 0.003561 -0.047651 -0.088875 0.019381 0.020981 0.133850 0.109394 -0.237343 0.043180 0.334164 -0.052806 -0.006894 0.376205 0.255206 0.128119 -0.418740 0.034986 0.150382 -0.557308 0.097251 0.109951 -0.072346 0.597024 0.083334 0.295671 -0.011780 -0.214946 0.158605 -0.267343 0.038837 -0.593471 0.153797 -0.202760 -0.033718 -0.087312 -0.183840 -0.454465 0.329312 -0.138617 0.548923 0.628683 0.244538 -0.266247 0.122418 -0.238794 0.034482 -0.079341 0.192835 -0.597879 0.410658 -0.192741 -0.266796 0.056866 -0.255605 -0.130952 -0.293658 0.287263 -0.453603 0.045390 -0.032968 0.367379 -0.758450 -0.081329 0.003216 0.203798 0.027215 -0.058987 0.242210 -0.128036 0.311021 -0.028490 0.092820 -0.017826 -0.146596 -0.328848 0.295144 -0.162915 0.271654 0.305573 -0.088647 -0.063527 0.176366 -0.181807 0.461426 0.210340 0.093880 0.219173 -0.263698 -0.149421 0.071823 0.016211 -0.012578 0.157894 0.050807 -0.080400 -0.265678 -0.231607 -0.098992 -0.211044 0.239521 0.387955 0.021531 0.076736 0.235773 0.068667 -0.155599 0.055689 0.055922 0.036073 -0.490198 -0.001698 0.262763 0.074258 -0.105391 0.008286 0.032078 0.079293 0.309944 -0.479267 -0.331219 0.141168 0.039264 -0.085890 -0.095190 0.089720 0.117477 0.170999 -0.306851 0.024107 0.020293 -0.169600 0.132497 0.024320 0.091255 0.465617 0.152911 0.435904 0.325366 0.140047 0.581108 0.272253 -0.438107 0.122001 -0.102590 0.116891 0.587776 -0.037390 -0.185950 -0.039281 -0.356219 0.068931 0.281683 -0.225537 0.172350 -0.171306 -0.008537 0.216845 -0.541557 -0.323089 0.070632 0.102787 0.165110 -0.084042 -0.024148 -0.235981 -0.226873 0.034904 0.236885 0.162987 -0.001625 0.251736 -0.111923 -0.058665 0.003841 0.255866
cheetah 0.075630 -0.119968 0.094490 0.075877 -0.073888 0.150504 0.253201 0.240429 -0.131600 0.085423 -0.198430 0.020455 -0.022025 -0.128625 -0.111956 -0.037506 -0.121092 0.111992 0.229969 0.093776 0.101667 0.243364 -0.032137 -0.036322 -0.019654 0.095270 0.108715 -0.052115 -0.130934 -0.029067 -0.043352 -0.194829 -0.123198 -0.200214 0.022721 -0.233461 0.236017 0.070438 0.043704 0.142495 -0.126481 0.044618 -0.292235 0.048860 0.237585 0.057053 -0.024426 0.274510 -0.032255 0.040344 -0.219409 0.085624 0.219302 0.043113 -0.065554 -0.292346 -0.083899 -0.159310 -0.106976 0.264201 -0.137451 -0.337016 0.239249 -0.294656 0.172938 -0.000624 -0.008081 -0.225073 0.024859 -0.437656 -0.066423 -0.076318 0.076693 -0.526981 0.092277 -0.167271 -0.146166 0.167883 -0.220877 0.230281 -0.382558 0.139534 -0.144131 0.186438 0.041095 0.076453 -0.387103 0.025723 -0.047290 0.302440 0.009370 -0.059320 0.134105 -0.319451 0.111851 -0.308349 -0.048046 -0.093650 -0.043261 -0.077433 0.088214 -0.252306 0.028086 0.016394 -0.048808 0.086867 -0.090745 -0.243999 0.322250 0.183605 0.035735 0.092050 -0.226007 -0.090776 0.221813 0.138562 0.105820 0.406931 -0.011432 0.147954 0.088685 -0.103283 -0.262448 0.004515 -0.099157 0.148322 0.423110 0.118902 0.048868 -0.040274 0.024087 0.093957 0.087802 -0.103107 -0.453285 -0.022886 0.320852 -0.199671 -0.149186 0.087858 -0.026300 -0.065886 0.145866 -0.150979 0.018640 0.036693 -0.097030 -0.113718 -0.035622 -0.041118 0.118373 0.064949 -0.117007 0.178758 0.147984 0.017267 0.130370 -0.048411 0.097497 0.336905 0.104337 0.293031 0.400757 0.121481 0.124344 0.319097 -0.003354 -0.245966 -0.071005 -0.074989 -0.222717 0.209661 -0.110490 -0.054095 -0.205915 0.471160 -0.162714 0.065140 0.095927 0.091044 0.289605 0.099306 -0.049130 -0.245164 0.055590 0.122488 0.055852 0.162656 0.020830 0.024105 0.023378 0.165228 -0.110855 0.002321 -0.227953 0.122642 -0.069384 0.129792 0.102379 0.412436
cheetahs -0.094249 0.024993 0.261986 0.085996 -0.169230 0.517007 0.089979 -0.165956 -0.261755 0.380904 0.064540 -0.469045 0.100298 -0.051618 0.183416 0.133642 0.290771 -0.092532 -0.057420 -0.343175 -0.099312 0.011030 0.270189 0.155846 0.045676 0.155041 0.201366 -0.222545 -0.223884 -0.466274 -0.347719 -0.208721 -0.430367 -0.178049 0.353786 -0.013598 -0.118949 0.213903 0.331561 0.291829 -0.316957 -0.214868 0.027317 -0.398269 0.292854 -0.191263 0.050897 0.397698 0.256489 0.056128 0.058124 -0.141003 0.334136 -0.568401 0.191129 -0.672844 0.006476 -0.131593 -0.152437 0.012638 0.042141 -0.579960 0.155507 -0.211062 0.536087 0.357848 -0.239351 -0.329315 0.102570 -0.394168 0.070898 0.314477 0.164678 -0.714198 0.401268 -0.344442 -0.283532 0.057623 -0.412454 -0.192304 0.127215 0.207331 -0.563292 0.126097 -0.214713 0.112851 -0.398592 -0.188803 -0.221778 -0.444183 0.335112 0.093391 0.257989 0.092696 0.551908 0.048978 0.022018 0.088586 -0.017770 -0.433421 0.024447 -0.264829 0.178743 0.251646 -0.032926 -0.218419 -0.047483 -0.106153 0.170788 0.815479 0.252262 -0.036253 -0.251507 -0.525503 0.082548 -0.065683 0.203758 0.124327 -0.197131 -0.247538 -0.296148 -0.752881 -0.351046 -0.394065 -0.256962 0.736014 0.418701 -0.168277 0.513741 0.505287 -0.330692 -0.079004 0.240295 -0.320030 -0.417509 0.037091 -0.012637 0.220283 -0.012255 -0.163740 -0.304735 0.444638 0.222033 -0.308604 -0.441766 0.156817 0.020992 0.170890 0.118840 -0.243068 -0.185085 0.017534 -0.247290 0.104167 0.070191 0.025478 0.000941 -0.274264 0.302011 0.249352 -0.372087 0.376697 0.417990 0.210698 0.337326 -0.256513 -0.067130 -0.064340 0.509156 0.179678 0.745799 -0.028785 -0.170223 -0.471773 -0.395537 -0.080192 0.097922 -0.363413 0.181942 -0.054315 -0.270987 -0.134396 -0.780213 -0.161103 0.091799 0.250619 0.393152 -0.376142 0.502264 -0.309292 -0.212804 0.412391 0.078927 0.145474 -0.113967 0.439762 -0.016735 0.068404 0.179974 -0.115645
child -0.017425 -0.153018 -0.219562 -0.034613 -0.075844 -0.053998 -0.034939 0.216084 0.207714 -0.322954 -0.212299 0.300175 -0.070403 -0.060661 0.045909 0.052584 0.016226 -0.030572 0.173846 -0.017584 0.277736 -0.075405 0.237493 0.207007 -0.172590 -0.113030 0.164918 -0.105519 -0.065535 0.330046 -0.130781 -0.262674 -0.165658 0.237152 -0.158064 0.062712 -0.233488 -0.032048 0.257984 0.181657 0.157340 -0.045435 -0.010531 -0.289691 -0.033885 0.212968 -0.113791 0.013628 0.044571 0.096667 0.105179 0.000876 -0.319248 0.024056 0.113766 -0.091592 -0.165621 0.112620 -0.138459 -0.186404 0.087065 -0.194767 -0.010524 0.133500 0.131629 -0.115848 0.306806 -0.015982 0.008357 0.154912 0.102461 -0.196767 -0.144141 0.019440 -0.009452 -0.222034 0.053324 0.197710 -0.133452 0.023222 -0.088007 -0.050647 0.004395 0.036248 0.141942 0.217521 -0.056690 0.137048 0.059288 -0.004050 -0.183463 0.024493 0.030623 -0.162504 0.532377 -0.041063 -0.187163 -0.183248 -0.292507 0.049137 0.274929 0.052585 -0.022427 0.139944 0.056817 0.019198 0.177686 0.099533 0.059366 -0.125835 -0.118398 0.095845 -0.044529 -0.049287 0.136301 0.087730 -0.063015 0.153614 -0.068372 -0.119520 0.253269 0.082097 -0.103810 0.204573 -0.007263 0.267766 -0.107252 0.000002 -0.051446 -0.120288 -0.285894 0.204268 -0.105026 -0.233594 -0.002488 -0.084672 0.182664 -0.136098 0.089888 0.215461 -0.167049 -0.007831 0.142942 -0.097778 -0.178053 0.102903 -0.006020 0.124087 -0.155391 0.067023 -0.129269 0.011730 -0.068456 -0.322412 0.162256 -0.148481 -0.155071 -0.367198 0.057750 -0.174082 0.011981 0.188158 0.059405 -0.043273 0.145407 0.144205 -0.239419 0.141908 0.012178 -0.189434 0.001695 0.470504 0.135618 0.047596 -0.029108 0.114063 0.024323 -0.085455 0.158970 0.072905 0.297676 0.206704 0.046731 -0.079460 0.140006 0.143869 -0.092738 0.167957 -0.010885 -0.157740 0.025916 0.239989 -0.045959 0.030355 -0.136549 0.168039 -0.155753 0.077114 -0.046373 0.095389
childs -0.194750 -0.005968 0.249041 -0.060884 0.044024 -0.043685 -0.025970 0.144732 -0.094180 -0.148014 0.053446 -0.051352 -0.169352 -0.103226 0.274397 -0.052674 -0.126379 -0.049033 -0.199405 0.063112 0.073762 0.034574 0.140823 0.119696 -0.304210 -0.140314 0.140655 0.094474 0.086689 -0.034921 0.057559 -0.108287 0.172705 -0.071635 0.152695 0.026701 0.054758 0.144761 -0.049671 0.175640 -0.067750 0.060945 0.007193 -0.092298 -0.181270 0.182919 -0.009262 -0.121272 0.051588 -0.035795 0.104943 0.075352 0.348719 0.002272 -0.350107 0.123715 -0.233240 0.295446 0.055600 0.243894 0.121983 -0.007546 -0.286618 0.110012 0.230280 0.227148 0.038148 -0.021221 0.044851 0.350170 0.019771 -0.048566 -0.127671 0.270135 0.123617 -0.111494 -0.167633 0.085106 -0.188443 0.038334 0.008719 -0.203082 -0.087052 0.109342 0.009748 -0.207109 0.028944 -0.185438 -0.061150 0.002128 -0.125889 -0.047532 0.152661 -0.026977 0.091951 -0.229213 -0.220600 -0.145818 -0.028536 -0.064538 -0.047620 0.159052 -0.023253 0.194822 0.057686 -0.085977 -0.157111 0.193192 0.059269 0.322452 0.089509 0.060518 0.077837 -0.119866 0.051970 0.345891 -0.057595 -0.220458 0.297976 -0.022110 0.301678 -0.232145 -0.344904 0.040865 0.004117 0.189606 -0.267913 0.077017 0.054417 0.164016 -0.048403 0.045774 -0.042328 0.006435 -0.109908 0.076027 0.130516 -0.085860 0.160418 -0.365585 0.148363 -0.095274 0.003332 -0.305653 0.011200 -0.114675 -0.025237 0.116409 -0.083889 0.060086 0.088317 -0.033604 0.049864 0.151991 -0.067272 0.117015 -0.061316 0.099372 -0.052308 0.101198 0.266838 0.296380 0.252318 0.474508 0.128023 0.010102 0.190596 -0.066870 -0.075895 0.038740 -0.575567 0.136820 -0.207248 -0.040781 -0.019749 0.217585 -0.161335 0.221313 -0.095301 -0.224876 -0.093346 -0.210175 0.121062 -0.166770 0.149193 0.219987 0.193888 -0.068146 0.066456 -0.115757 -0.247788 -0.101633 -0.085738 -0.202626 0.050972 -0.100332 -0.272869 -0.184558 0.166865 -0.107348
corn 0.154447 -0.225661 0.255240 -0.107886 -0.453616 0.379221 0.108231 -0.163394 -0.638503 -0.135684 -0.246991 -0.098260 -0.219246 0.151917 0.359831 -0.314960 0.242643 -0.215975 0.619347 -0.138004 0.226811 0.049631 -0.061155 -0.090081 -0.074878 -0.084410 0.078348 0.189468 0.263856 -0.001758 0.028909 0.211537 0.267371 -0.187177 0.209302 -0.175710 0.194686 0.022438 0.166333 -0.141857 -0.015384 0.332459 -0.075425 -0.458571 0.343070 0.025604 0.052206 -0.047041 0.066972 -0.175241 -0.105861 0.112190 -0.291217 -0.055934 0.280569 -0.256612 0.376272 -0.315615 0.126176 0.131327 -0.036562 -0.192457 0.664732 0.012265 0.146856 -0.161644 -0.155407 -0.032609 0.118049 0.312570 -0.064214 0.290307 -0.164991 0.054821 0.198775 -0.473377 -0.111755 -0.137792 -0.123326 0.045819 0.181208 -0.193008 -0.049548 0.208861 -0.589390 -0.063069 0.112382 -0.307431 0.031650 0.125759 -0.139109 -0.606894 0.327663 -0.531204 -0.112323 -0.242627 0.080600 -0.034216 -0.776277 0.240574 0.241198 0.212757 0.265056 0.128186 -0.171089 0.020616 -0.218035 0.263530 0.322294 0.238196 -0.118629 0.175943 0.038336 0.216694 0.134311 0.100253 -0.306727 0.042125 0.022779 -0.015931 -0.456948 -0.541044 0.235619 0.367633 0.408596 -0.394661 0.078305 0.186562 -0.022854 -0.222602 -0.232150 0.014684 -0.108017 0.275050 0.167776 0.270079 0.348959 -0.295831 -0.401434 -0.277964 -0.041857 -0.139828 -0.155174 -0.119085 -0.003615 0.088522 -0.160571 0.237531 0.119672 -0.092783 -0.080543 -0.530737 0.133802 0.151356 -0.036183 0.273258 0.074348 0.016711 0.242275 0.057606 -0.048423 0.152283 0.246771 0.226226 -0.257701 -0.095445 -0.072560 0.228606 -0.301091 -0.000909 0.248611 0.084447 0.252468 0.419710 -0.423681 -0.221704 0.105116 0.239261 -0.329460 0.430005 0.114496 -0.014723 -0.000309 -0.251112 0.019000 -0.234466 0.024964 0.133712 0.161060 0.081850 -0.196877 -0.528039 -0.014536 -0.267024 -0.203664 0.493820 -0.329631 -0.139997 -0.190197 0.209022
corns 0.113257 -0.277399 0.156836 -0.000687 0.185845 0.259698 0.160858 0.070757 -0.247601 0.001539 -0.250083 -0.109761 -0.405285 0.060574 0.015760 -0.088127 0.212946 -0.294871 0.194309 0.173141 0.163429 0.276853 0.086031 -0.154255 -0.141475 -0.256421 0.043772 0.197308 -0.039026 0.230238 0.195637 0.072754 0.162418 -0.130481 0.119224 -0.145059 0.410942 0.122380 0.081932 -0.137670 0.161609 0.172214 0.213155 -0.177128 -0.027346 0.017350 0.344399 0.291191 0.219906 -0.054178 -0.166651 0.120988 0.073224 0.003082 -0.069814 -0.311701 0.310543 -0.043893 0.273460 0.055844 -0.275096 -0.385769 0.486252 -0.157841 0.065209 -0.374002 -0.122312 -0.116785 0.085578 0.138021 -0.274113 0.171699 -0.229184 0.076403 0.039202 -0.060999 0.035278 0.123298 -0.198471 0.010816 0.041689 -0.241040 -0.241057 0.156325 -0.158521 0.142503 -0.055081 -0.103750 -0.254002 -0.098653 -0.182588 -0.231286 0.284748 -0.188785 0.039686 -0.122669 -0.271896 0.000435 -0.208168 0.173496 0.253736 0.390169 0.344525 0.031544 -0.269801 0.051329 -0.325146 0.182507 0.086492 0.100400 -0.070489 0.016971 -0.244749 0.023005 0.104799 0.289222 -0.164554 0.374526 -0.022087 -0.346184 -0.316000 -0.355526 0.203243 0.140627 0.103763 -0.142876 0.011055 0.241804 -0.038492 -0.262316 0.097229 0.145780 0.113883 0.268559 0.150645 0.008895 0.065347 -0.136170 -0.402223 0.005715 0.074800 0.098879 -0.228759 -0.282198 -0.228446 0.118436 0.045402 0.233080 -0.002844 -0.283936 -0.472702 -0.224897 -0.197211 0.128094 0.182520 0.230935 0.102601 0.254633 0.257958 0.107679 -0.011755 0.057889 0.064477 0.104585 0.092176 0.233392 0.025007 0.011218 -0.174892 -0.053241 -0.031938 -0.048540 -0.252336 0.272153 -0.082754 -0.141080 -0.041294 0.255518 0.072888 0.278510 0.232536 -0.195363 -0.008454 -0.330344 -0.182954 -0.268884 0.228291 0.098735 -0.054961 -0.144468 0.009531 -0.154231 -0.081981 -0.150554 -0.021649 -0.048097 -0.276990 0.023109 -0.145576 0.107902
cow 0.306581 -0.487151 0.075301 0.106008 0.107134 -0.006626 0.367445 0.239175 0.104743 0.146324 0.235904 0.081492 -0.042512 -0.333348 0.040836 0.111218 0.197113 0.020202 0.463877 -0.092057 0.248373 0.177367 0.480299 -0.544534 0.019735 -0.559035 -0.197579 -0.001749 0.048010 0.029980 0.440652 0.098488 0.093989 0.158617 -0.042746 -0.076184 0.136795 0.139797 0.036855 -0.095417 0.093817 0.011842 -0.551333 -0.411329 0.290371 0.025963 0.512572 -0.043271 -0.223345 0.314976 -0.404799 0.064007 -0.243121 -0.273429 0.243066 0.001552 0.309767 0.077761 0.053143 0.075987 -0.217164 -0.154663 0.250999 -0.117776 0.058867 -0.108023 -0.133927 -0.246348 -0.126953 -0.233305 0.176524 -0.043718 -0.251165 -0.065775 0.009134 -0.572965 -0.214665 0.457436 -0.021547 0.091409 -0.622108 0.201910 0.142257 0.304990 -0.082442 0.487658 -0.257570 0.040727 -0.405429 0.272170 -0.400232 -0.288192 0.268734 -0.529301 0.207809 -0.163916 0.054595 -0.355048 -0.346557 0.112520 0.521116 0.084187 -0.489875 -0.016880 0.007008 -0.360995 -0.204429 0.149568 0.667558 -0.163859 0.209589 0.139128 0.104190 -0.203301 0.369854 -0.063403 -0.022483 0.215823 -0.268362 0.062158 -0.365070 -0.368741 0.229861 -0.193772 0.115276 -0.019059 -0.140829 0.051775 -0.018542 -0.144925 -0.173347 -0.539046 -0.089525 0.498795 -0.357568 0.021118 0.044516 -0.094913 -0.130417 -0.149265 0.073181 0.220618 -0.252423 -0.145543 -0.033531 -0.218076 -0.499092 -0.024011 -0.139721 -0.178809 0.120629 0.113614 -0.354362 0.056892 -0.257169 0.027770 -0.195631 -0.160942 -0.371281 -0.021487 -0.206999 0.183502 0.271567 0.154314 0.422289 0.117978 -0.073581 -0.379214 -0.094988 0.275909 -0.230718 -0.097350 -0.233947 0.090438 -0.501891 0.084129 0.233611 0.207774 0.244694 0.115657 -0.015466 -0.182068 -0.112227 -0.469804 0.293355 -0.300015 -0.030075 0.083623 -0.154923 -0.576362 -0.056040 0.138785 -0.474924 -0.230000 0.211774 -0.030947 0.018792 0.172210 0.007706 0.641735
cows 0.183107 -0.307780 0.183833 -0.029766 -0.030849 0.134152 0.327332 -0.183411 -0.232999 0.049761 0.005161 0.057313 -0.207324 -0.109990 0.168737 0.208398 0.072203 -0.184817 0.456096 -0.053504 0.035096 0.197939 0.047024 -0.262046 -0.096068 -0.189011 -0.116568 -0.198992 0.150821 0.210127 0.170356 0.208529 -0.075624 -0.006668 0.032973 -0.120296 0.269316 0.104803 0.119264 -0.095992 -0.011788 -0.106279 -0.372070 -0.340100 0.299474 -0.034327 0.286695 0.161584 -0.122879 0.262938 -0.288482 0.208957 -0.222351 -0.224800 0.350832 0.012649 0.019541 0.048957 0.015873 0.044602 -0.175815 -0.233356 0.375662 -0.335799 0.310816 0.017622 0.012744 -0.146884 -0.106444 -0.149294 -0.012633 0.203639 -0.369811 0.076762 0.003925 -0.583303 -0.100284 0.229162 -0.048895 -0.156336 -0.641213 0.053674 -0.239060 -0.015554 -0.327480 0.291519 -0.285543 -0.067114 0.032477 0.092444 -0.243320 -0.351321 0.198771 -0.452189 0.239860 -0.289209 0.114353 -0.157599 -0.233391 0.100767 0.418394 -0.010737 -0.045183 -0.140722 -0.221875 -0.022469 -0.170486 -0.028168 0.400123 0.118045 -0.210593 0.273010 -0.263035 -0.037746 0.435524 -0.117653 0.076618 0.467435 0.024725 0.091121 -0.337867 -0.372898 -0.340721 -0.034212 -0.049595 -0.025534 -0.026880 0.217703 0.185547 -0.342537 -0.295221 0.041466 0.054807 0.537069 -0.165705 0.104585 0.218200 0.045109 -0.215940 -0.064663 0.170611 -0.004291 -0.189476 -0.227073 0.013805 -0.076685 -0.100027 0.064520 -0.138921 -0.111544 0.168833 0.084435 -0.366841 -0.204331 -0.294731 0.120661 0.309922 -0.115710 0.087534 0.122355 -0.276859 0.218269 0.198819 0.255056 0.114517 0.211570 -0.294422 -0.109811 -0.002282 0.140210 -0.049935 0.046436 -0.205397 -0.006000 -0.465000 0.136213 -0.071298 -0.074167 -0.024212 0.430427 0.116415 -0.259580 -0.337980 -0.247020 0.194986 -0.072456 -0.066538 0.086269 0.000448 -0.198377 -0.022667 -0.237762 -0.066822 -0.180816 0.149918 0.220727 -0.138345 0.037794 0.118038 0.386996
dog -0.150460 -0.175041 -0.083769 0.020997 -0.105958 0.112676 -0.007924 0.027967 0.117980 -0.105638 0.012763 0.139913 -0.140943 -0.049588 0.026149 0.172276 0.051311 0.025165 0.178482 0.249845 0.365905 0.098146 0.085533 -0.072480 -0.087076 -0.177526 0.161258 0.006474 0.161248 0.191924 -0.030254 -0.182708 -0.058747 -0.061500 0.063753 -0.036555 0.063160 0.007387 -0.083573 0.065595 0.269373 0.144202 -0.145821 -0.219393 -0.065028 -0.004985 0.020852 0.166812 0.021047 0.364314 -0.202204 -0.090774 0.203008 0.127258 -0.021679 -0.167660 0.040551 0.010108 -0.146596 0.049634 -0.186086 -0.114582 0.142084 -0.107044 0.145657 0.143868 -0.043423 -0.097364 0.023244 -0.347569 -0.061677 -0.023788 -0.073287 -0.138060 -0.010296 -0.249629 -0.110287 0.061945 -0.190991 0.066389 -0.176075 0.044142 0.061195 -0.120915 0.011541 0.165183 -0.360172 0.141827 0.144961 0.103883 -0.146478 -0.086447 0.051457 -0.395551 0.320296 -0.177460 0.127226 -0.136823 -0.179347 -0.029318 0.167663 -0.064442 0.280860 -0.082262 -0.087483 0.038044 -0.000386 -0.047540 0.179385 -0.123378 -0.060909 0.133465 -0.061366 -0.154168 0.203333 0.105993 -0.058652 0.278864 -0.093047 0.038374 -0.063431 -0.068389 -0.133223 0.200406 0.039376 0.204500 0.026446 0.058255 0.014972 -0.060414 -0.143741 -0.009316 -0.024267 0.092116 -0.177946 -0.157986 0.361190 -0.146137 -0.124963 -0.034935 0.096812 -0.016320 0.140690 -0.007636 -0.042549 -0.114562 -0.059067 0.136158 0.010315 -0.013857 0.195090 0.064080 -0.271316 0.062950 0.099570 0.073608 0.134403 -0.081739 -0.113406 0.217833 0.040792 0.264086 0.083632 0.041870 0.062888 0.253778 -0.057254 0.008779 -0.108734 0.104745 -0.007362 0.096050 -0.094907 0.079721 -0.163324 -0.045481 0.038609 0.098385 0.075018 0.020550 0.277449 0.012615 -0.006095 -0.395498 0.004732 0.005420 -0.149255 0.056608 -0.062494 0.063898 0.031604 0.081887 0.070816 -0.000117 -0.104236 0.138407 -0.132905 0.131528 0.040385 0.305944
dogs -0.098819 -0.109849 -0.011154 0.005877 -0.021120 0.418933 -0.127234 -0.103473 -0.008765 -0.002208 0.107933 0.028481 -0.159959 0.001318 -0.009069 0.164483 0.120362 -0.057001 0.265194 0.162706 0.153767 0.044465 -0.101678 -0.069875 -0.024566 -0.273802 -0.065791 0.052127 0.112651 0.086398 0.002744 0.043846 0.030432 -0.012791 0.004586 0.037965 0.168287 0.045267 -0.004745 -0.039704 0.240052 -0.051695 0.043984 -0.230151 0.061002 0.206406 0.106518 0.251354 0.101452 0.274425 -0.310791 -0.123057 0.068216 -0.113363 -0.022827 -0.036489 0.143865 -0.203899 -0.040209 -0.022045 0.027282 -0.082627 0.081332 -0.117331 0.134413 0.491789 0.009498 0.048412 0.138310 -0.356350 -0.064204 -0.026635 0.113366 -0.118003 0.034205 -0.370882 -0.209056 -0.017090 -0.148354 -0.084981 -0.262352 -0.051011 -0.085938 -0.113784 -0.178416 0.233888 -0.316046 0.165315 0.269053 0.030239 -0.125009 -0.043254 -0.031047 -0.386598 0.270203 -0.278470 0.075011 -0.138916 -0.300664 -0.115220 0.216354 -0.132336 0.271777 0.040026 -0.222714 0.037728 0.165948 -0.095669 0.061163 -0.085333 -0.256625 0.007107 -0.242306 0.027104 0.130029 0.032813 -0.090655 0.258355 0.085247 -0.065241 -0.037830 -0.045947 -0.090572 0.078210 -0.129412 0.274978 -0.013222 0.219018 0.240067 -0.112283 -0.252738 0.085745 0.181706 0.104787 -0.253668 -0.108783 0.144947 -0.054890 -0.247128 -0.066565 0.216477 -0.097473 0.045121 0.124948 -0.043992 -0.059318 -0.142417 -0.007979 -0.048518 -0.134497 -0.060646 0.035849 -0.215246 -0.085468 -0.067932 0.082421 0.318742 0.158878 0.027300 0.228281 -0.090532 0.188312 0.160782 -0.007761 0.108877 0.313048 0.007563 0.025966 -0.214160 0.072295 -0.046516 0.203266 -0.253247 0.054005 -0.226461 0.081138 0.040176 -0.086882 -0.044017 -0.128970 0.219660 -0.035626 -0.166537 -0.335150 0.052972 0.014410 -0.007220 0.156100 0.071643 -0.131164 0.006997 -0.146358 0.152589 -0.183566 0.211666 0.142480 -0.314605 0.036357 0.119507 0.236823
falcon 0.051334 -0.128894 -0.212270 -0.093629 -0.034051 0.052493 -0.185155 0.130637 0.035729 -0.187475 -0.008518 -0.002410 -0.118142 0.008749 0.129041 -0.188272 -0.164250 -0.148411 0.136113 0.106963 -0.059628 -0.059620 0.189450 0.335788 -0.011056 -0.093651 0.251632 0.085307 0.162261 -0.172917 0.033417 0.126441 0.252464 -0.233476 -0.033142 -0.098289 0.490213 0.294050 -0.014821 -0.013907 0.112051 0.053590 -0.082649 0.210655 0.204516 0.003615 -0.200724 0.120860 0.122938 -0.138974 -0.192035 -0.049849 0.418392 0.202178 0.219152 -0.137335 -0.120956 0.079347 0.039420 -0.059862 0.123948 -0.134020 0.039057 0.124725 0.065704 -0.062853 -0.013822 -0.259967 0.052409 -0.198674 0.001518 -0.344110 -0.067027 -0.028974 0.224755 -0.156613 -0.265134 -0.041162 -0.005434 0.085049 -0.136869 0.098314 -0.217984 0.254393 0.180478 0.244941 0.015776 0.074444 0.208975 0.102328 0.037383 0.240690 -0.059426 -0.131654 0.101317 -0.193792 0.082413 0.046301 0.018616 -0.310058 0.123518 0.032531 0.014672 -0.064833 -0.271830 -0.192475 -0.246057 -0.174756 0.254495 -0.067738 0.154522 -0.077982 -0.190922 -0.088057 0.097328 -0.028849 -0.193848 0.428264 -0.038031 -0.063626 -0.006900 -0.318098 0.000527 0.016356 0.160036 0.091289 -0.010429 -0.190796 0.316147 0.067917 -0.090394 -0.081734 0.165848 -0.034657 -0.295226 -0.276412 0.264589 -0.017989 -0.148160 -0.074937 -0.073015 0.023085 0.218128 -0.148008 0.017355 -0.074354 -0.119799 0.146802 -0.025245 -0.277924 0.032324 -0.014024 0.105004 0.098427 0.152391 -0.116021 0.060761 -0.045013 0.049160 0.225822 0.042120 0.150528 0.252690 0.028061 -0.070849 0.072614 0.014476 -0.147079 0.106482 0.333320 -0.282229 0.057528 0.125253 0.098849 -0.111187 0.262399 -0.063011 0.103614 0.089980 -0.114366 -0.173800 0.245722 0.224466 -0.304325 0.069777 0.085778 0.062021 -0.229873 -0.307719 0.088478 -0.107852 -0.069719 -0.171535 0.038563 -0.112917 -0.097787 0.192347 -0.074545 0.151552 0.120733
falcons 0.004530 0.207651 -0.133391 0.212000 -0.034138 0.266389 -0.039183 0.108085 -0.027285 -0.212554 0.388900 -0.003926 -0.735838 -0.336502 0.106361 -0.037854 0.172361 0.403553 -0.056044 -0.060753 0.028938 -0.031873 -0.180357 0.250736 -0.173551 -0.209896 -0.083170 -0.026176 -0.033680 -0.045145 -0.336198 -0.435551 -0.004246 -0.339896 0.272735 -0.235748 0.375442 0.381179 0.422226 -0.249263 -0.100080 0.411628 -0.007039 -0.054111 -0.449059 0.226194 -0.143921 0.100603 0.663368 0.280589 0.043818 0.150283 0.252875 -0.391974 -0.232961 -0.280463 0.018022 0.139559 -0.079672 -0.239135 0.219636 -0.014623 0.024255 -0.104196 0.259316 0.486268 0.049220 -0.081860 0.045272 0.297115 0.381679 0.042635 -0.242772 0.181428 0.157280 -0.035712 -0.372928 -0.044313 0.153353 -0.188866 -0.117745 -0.393315 -0.431354 0.401826 -0.544296 -0.099252 -0.230137 -0.123260 -0.190411 0.171692 -0.094769 -0.090745 -0.216618 0.132251 0.445186 0.003163 0.055369 -0.275406 -0.448905 -0.091835 0.017326 0.234286 0.008794 0.177083 0.027437 -0.456950 -0.190340 -0.302286 0.029456 -0.029107 -0.038011 0.145671 0.116807 -0.244123 -0.102072 0.268167 0.282715 -0.128681 -0.202604 -0.136540 -0.120289 -0.408764 -0.325940 -0.413335 0.087171 0.198775 -0.009694 -0.449741 0.308535 -0.142653 -0.098063 -0.235843 0.200870 -0.297864 -0.092436 0.098733 0.135053 0.381370 -0.302735 -0.157754 -0.248716 0.049396 0.230706 0.040941 -0.201931 0.000022 0.022564 0.211958 -0.312605 -0.423703 0.155330 -0.411431 -0.336765 0.115805 0.043291 -0.113459 0.213077 -0.002612 0.063967 0.023603 0.287765 0.043582 0.097058 0.317348 -0.083545 -0.308885 0.218805 0.006914 -0.129998 0.143111 0.104587 -0.029434 0.032523 -0.214259 0.131136 0.335121 0.062173 -0.035152 -0.142926 0.099386 0.178385 0.155533 -0.299720 -0.301456 -0.118215 0.205062 -0.171760 -0.098410 0.335424 0.097940 -0.114341 -0.044253 0.336425 0.064458 -0.130624 0.221767 0.293755 -0.057866 0.221034 -0.004794
flower 0.167307 -0.316903 0.129202 0.381259 0.003111 -0.059601 0.083728 -0.087045 -0.021945 0.150510 -0.318538 -0.082331 -0.066613 0.089971 0.094936 0.032844 0.019550 -0.195757 -0.099389 0.165067 0.433401 0.104089 -0.184274 0.121175 0.360314 0.011371 0.097033 -0.058415 0.222696 0.001500 -0.094260 -0.362213 0.183928 -0.310463 0.253445 -0.192433 -0.104260 -0.049354 0.135926 0.000002 0.130750 -0.170465 -0.130974 -0.223763 0.295548 0.054756 0.146525 0.222921 -0.061776 0.125493 -0.100354 0.149971 0.156799 -0.007889 0.180170 0.009792 -0.048215 -0.490071 0.130719 0.310299 0.045078 -0.202029 0.169263 0.040107 0.140923 -0.001135 -0.064749 -0.158490 0.164790 0.035753 -0.074277 0.140546 -0.033640 -0.070697 0.164912 -0.075388 -0.288175 -0.059992 -0.390881 -0.021769 -0.130054 -0.044610 -0.079622 -0.100858 -0.221433 -0.273436 -0.166726 -0.222956 0.147922 -0.053733 -0.087193 -0.058635 0.164842 0.106677 -0.090566 -0.220377 -0.182848 0.181764 -0.115972 0.227443 0.035059 0.033784 -0.072587 -0.026261 -0.241854 -0.127384 -0.245192 -0.193518 -0.033995 0.111967 -0.171537 0.199828 -0.081362 -0.365406 0.223669 0.140284 -0.184570 0.164566 -0.179191 0.091598 0.196913 -0.326612 -0.301528 0.283214 0.122898 -0.024976 0.301500 -0.137260 -0.241221 -0.247324 0.068028 0.127196 -0.013424 -0.193830 0.017711 0.058079 0.202541 -0.225607 -0.123116 0.141404 0.282567 -0.010061 -0.122287 -0.321932 -0.116330 0.041646 0.046889 0.249274 -0.023941 -0.178987 -0.102569 -0.038197 -0.316906 0.145072 -0.003201 0.120724 0.069810 0.090911 -0.087096 0.118678 0.130642 0.188859 0.005873 0.154637 0.245873 -0.009420 -0.168569 -0.005150 -0.106789 -0.126387 0.078451 0.109091 -0.071214 0.251010 -0.343006 -0.068604 -0.060645 0.248507 0.090312 0.134805 0.054008 -0.108832 -0.003484 -0.143629 -0.154273 -0.077998 -0.083706 -0.261894 0.091271 -0.055307 -0.035274 0.230953 0.045467 -0.065880 -0.106161 0.256894 -0.206620 -0.211859 -0.252656 0.370824
flowers 0.359997 -0.068189 0.017032 0.149878 0.154711 -0.064203 -0.030831 -0.215052 -0.007490 0.037318 -0.355455 0.107149 -0.068841 0.132766 0.117264 -0.188312 -0.071019 -0.344926 0.084848 0.211672 0.189074 0.128439 -0.185304 -0.051927 0.150429 -0.066960 0.111332 -0.000105 0.265421 -0.025055 -0.177593 -0.269184 0.156231 -0.213151 0.244367 -0.173698 -0.007019 -0.116955 -0.122665 -0.040505 0.140764 -0.216433 -0.152710 -0.307530 0.271440 -0.068104 0.095466 0.283734 -0.078579 0.319310 -0.015823 0.238628 0.278280 0.196155 0.068170 0.062486 0.083588 -0.360078 0.303343 0.101096 0.149632 -0.065855 0.251447 -0.232029 -0.104596 -0.004704 0.023512 -0.106409 0.267440 0.146328 0.214771 0.173643 -0.029671 0.082142 0.024914 0.065652 0.031452 -0.064686 -0.421908 0.002020 -0.214352 -0.106376 -0.221762 -0.104800 -0.204727 -0.127401 -0.188486 -0.055249 0.038099 0.018461 -0.211023 0.066906 0.228844 0.015142 0.063663 -0.273092 -0.053132 0.092388 -0.403174 0.244394 0.074576 0.056472 0.216260 -0.118261 -0.104917 -0.012596 -0.248693 -0.035588 0.049568 -0.084069 -0.071433 0.293288 -0.068858 -0.175709 0.188052 0.145799 -0.218219 0.195517 -0.052466 -0.094483 -0.038698 -0.185202 -0.085487 0.076685 0.028968 -0.113282 0.206392 0.024501 0.035415 -0.127297 -0.002313 -0.018311 0.277050 -0.083012 0.317751 0.216574 0.198214 -0.353453 -0.216128 0.079459 0.182185 -0.006455 -0.035491 -0.467951 -0.141280 0.108806 -0.079810 0.284664 -0.042355 0.021417 -0.055172 -0.013428 -0.130604 0.177643 -0.102907 0.145128 0.104499 0.116539 0.032244 0.105015 -0.006898 -0.000638 0.061682 -0.119072 0.386224 -0.000788 -0.050465 0.159261 0.008571 -0.002642 -0.215699 0.055597 -0.149212 0.227134 -0.173990 -0.113359 -0.146817 0.007722 0.223580 0.183970 0.422259 -0.036882 0.155993 -0.157201 -0.135037 -0.105203 -0.162399 0.003312 0.239496 -0.259214 0.039680 -0.073863 0.413076 0.053082 -0.030014 0.139357 0.039439 -0.335134 0.035656 0.260243
gorilla 0.181520 -0.052300 0.121222 -0.081870 0.019506 0.226053 0.214949 0.163521 0.124421 0.034350 -0.131393 0.108273 -0.206917 0.014943 0.073727 -0.018169 -0.029057 0.190457 0.174988 0.294561 0.165200 0.137451 0.369693 -0.113642 0.189990 -0.020701 0.108671 -0.202233 0.272952 -0.005867 -0.145518 -0.168211 -0.016596 -0.197316 -0.158775 -0.000295 0.088920 0.132354 0.085976 0.108031 0.048337 0.048313 0.078233 -0.065943 0.200009 0.143399 0.191514 0.110825 0.039161 0.186200 0.029724 -0.124463 0.335484 -0.081575 -0.042531 -0.211036 0.041015 0.100709 -0.100192 0.137867 -0.048476 -0.054758 0.067900 -0.020079 0.212228 0.023889 0.114731 -0.222569 0.166283 -0.109700 0.094852 0.082988 0.250622 -0.109007 0.189060 -0.221843 0.093520 0.087352 0.048018 0.122443 -0.295888 0.040991 -0.149505 0.160533 -0.124998 0.286509 -0.330873 -0.041045 0.059783 0.252152 0.043622 0.372775 0.230307 -0.206548 0.046127 0.128778 0.017081 -0.152568 0.019637 0.042652 0.003743 -0.206808 0.190645 0.055736 0.162125 -0.019700 -0.073378 -0.023417 0.509741 -0.051424 0.090252 0.187233 -0.104392 -0.203838 0.353136 0.155950 -0.186434 0.390075 -0.056059 0.244684 -0.037833 -0.173897 0.096294 0.205249 -0.010748 0.254240 0.276029 0.130462 0.246161 -0.132910 -0.065713 0.062657 0.113450 0.103588 -0.318828 -0.182694 0.642102 -0.173167 -0.051806 0.030402 -0.120711 -0.168781 0.372949 -0.116487 0.303610 0.165015 -0.085154 -0.075024 0.095849 0.048849 0.152421 0.308867 -0.118769 0.080094 0.026893 0.055439 0.188059 -0.126983 -0.240591 -0.061678 0.150608 0.277208 0.301535 0.131833 0.144464 0.284321 0.092341 -0.332833 -0.250421 -0.024877 -0.033526 -0.056943 0.096820 0.118813 -0.234191 0.361252 0.083774 0.027087 0.227603 0.287943 0.129417 0.236982 -0.014093 -0.295525 -0.111907 0.141051 -0.239974 -0.071582 0.170381 -0.021901 -0.065961 0.174631 -0.460038 -0.056553 -0.062895 0.023589 -0.071306 0.154872 -0.037582 0.371792
gorillas -0.092235 0.007165 0.162459 -0.053214 0.093155 0.425397 0.245710 -0.012755 -0.271410 0.206008 -0.161291 -0.047547 0.098044 -0.032676 0.262763 0.023439 -0.174620 -0.137782 0.273039 0.278591 0.135463 -0.085429 0.274779 -0.201097 0.001329 -0.001872 -0.060061 -0.490772 0.167075 -0.201704 0.093872 -0.100325 0.071868 -0.226858 -0.085660 -0.018512 0.129948 0.429227 0.092365 0.384126 -0.096923 -0.299702 0.039982 -0.168893 0.204574 0.232660 0.091890 -0.022852 -0.015340 0.249798 -0.008996 -0.003741 0.119704 -0.240168 -0.071659 0.108968 0.133372 -0.040380 0.041306 -0.187994 -0.139502 -0.332977 0.277137 -0.539361 0.172103 0.112970 0.166308 -0.197038 0.229851 -0.208663 -0.069323 0.083954 0.258901 -0.150706 0.038403 -0.304186 0.152882 0.113495 -0.085031 0.006393 -0.319983 -0.046730 -0.173969 0.037688 -0.278568 0.370681 -0.425207 -0.021063 0.178070 0.093552 -0.271316 -0.023361 0.201076 -0.265044 0.303407 -0.115948 -0.041380 -0.175128 -0.058294 0.041047 0.082485 -0.092305 0.283341 0.132259 -0.159345 -0.214182 -0.066233 -0.344186 0.346253 0.060493 0.018267 0.196538 -0.230020 -0.209051 0.498533 0.137164 0.077029 0.388828 -0.103411 0.314188 0.004278 -0.097905 -0.097329 -0.068053 -0.158055 0.247973 0.602772 0.069719 0.206965 -0.160249 -0.153729 0.109649 0.176956 0.087777 -0.341006 -0.192914 0.553923 -0.027510 -0.009627 0.347999 0.449372 -0.229628 0.351756 -0.314745 0.201320 0.213102 -0.325688 -0.124932 -0.227924 0.007013 0.055406 0.303482 -0.283251 -0.118377 -0.017354 -0.091604 0.449651 -0.183378 0.125193 0.150397 0.004913 0.307564 0.240639 0.135192 0.066748 0.338858 0.187637 -0.221445 -0.154261 0.014532 -0.117855 -0.115640 0.213993 -0.106241 -0.327689 0.355062 -0.086427 -0.166251 0.064895 0.120291 -0.110087 0.194843 -0.311601 -0.244255 0.007968 -0.014304 -0.039375 0.156180 0.170185 -0.251267 -0.360329 0.005756 -0.427651 -0.110915 0.018325 0.534118 -0.094310 -0.139862 -0.037597 0.779834
grape 0.336068 -0.264346 0.335343 -0.176869 0.017369 -0.037603 0.401315 -0.010718 0.021772 0.118892 -0.441530 -0.252407 -0.160369 0.001975 0.037582 -0.277763 0.018605 -0.150676 0.248192 0.114039 0.771681 -0.050154 0.000344 -0.312686 0.026658 -0.222036 0.258639 0.004694 0.109486 -0.149178 0.219100 -0.098897 0.270263 -0.017083 0.439247 -0.076778 0.021030 -0.048798 -0.031577 -0.049601 -0.106968 0.143913 -0.065984 -0.254434 -0.049319 -0.157008 0.058192 -0.094006 0.108678 -0.285744 -0.090024 -0.048964 0.294894 -0.059589 0.220070 -0.056198 0.451769 -0.341319 0.018256 -0.011789 0.173498 -0.063516 0.131168 -0.071952 0.095546 -0.047169 0.051590 -0.315654 0.006481 0.085133 0.017888 0.040451 0.493084 0.079897 0.139420 -0.109175 -0.084367 -0.023894 -0.348799 0.027098 0.395339 0.038466 -0.062751 -0.054095 -0.537350 0.067178 0.004629 0.039297 -0.060931 -0.002705 -0.054460 -0.332434 -0.017035 -0.012710 -0.040687 -0.274308 -0.134201 -0.213966 -0.456899 0.296963 0.331444 0.285663 -0.039111 -0.141341 -0.361095 0.115458 -0.254579 0.178437 0.127103 0.206954 0.065097 -0.064852 -0.151616 0.046582 -0.038643 -0.136559 -0.128812 0.496966 -0.003794 0.134755 -0.127035 -0.181929 0.216472 0.196484 0.095988 -0.184370 0.114750 0.035019 0.171357 -0.251685 0.094217 0.215795 0.124683 -0.056392 0.216916 0.059950 0.258994 -0.058950 -0.425068 -0.479858 0.191061 0.076829 -0.145790 -0.273886 0.045700 0.282176 -0.116345 0.401138 0.010437 -0.204769 -0.233273 -0.200368 -0.181807 0.128619 -0.233791 0.446155 0.037720 0.231786 0.194930 0.212173 -0.024956 0.018834 0.219715 0.251164 0.256955 0.087647 -0.167978 0.051712 -0.360256 -0.036287 0.433059 -0.272938 -0.003852 0.439607 -0.316979 -0.206102 -0.074730 0.088946 0.048793 0.270261 0.229922 -0.109176 0.425543 -0.410272 -0.012573 -0.141595 -0.411512 -0.119571 0.128904 0.001868 -0.215575 -0.021884 0.010588 -0.253249 -0.164005 0.292792 -0.151508 -0.166394 -0.180388 0.550721
grapes 0.549608 -0.181213 0.205838 -0.069131 0.191703 0.058924 0.316382 -0.108840 -0.244267 0.179060 -0.448232 -0.226963 -0.265303 -0.169842 -0.052305 -0.255665 0.051875 -0.186078 0.245828 0.016504 0.650820 -0.162854 0.055389 -0.344971 -0.023141 -0.150131 0.044110 -0.057010 -0.008730 0.063897 0.125268 -0.130474 0.216079 0.006763 0.422568 -0.060160 0.093614 -0.150605 0.110032 -0.122376 -0.088957 -0.102997 -0.017739 -0.267381 0.031748 -0.047707 -0.036083 -0.015344 0.155383 -0.203410 -0.059314 0.152958 0.352498 -0.071223 0.079542 -0.171104 0.414711 -0.337619 0.108778 -0.239335 0.197510 -0.115322 0.207727 -0.141578 0.134955 -0.036399 0.046132 -0.414105 0.045870 0.054195 0.065026 0.021239 0.261350 0.039735 0.146383 -0.124540 -0.172703 -0.028569 -0.142952 -0.068646 0.265882 -0.033450 -0.349654 -0.076129 -0.544987 0.071203 0.002852 0.093317 0.037003 -0.270126 -0.164665 -0.206508 -0.224289 -0.114193 0.017292 -0.436566 -0.089122 -0.172049 -0.575922 0.074353 0.172421 0.287696 0.101110 -0.108528 -0.417639 0.122152 -0.377185 0.053726 0.022009 0.172993 -0.044353 -0.080938 -0.129265 0.157145 -0.093036 -0.113840 -0.140933 0.361778 -0.051753 0.064892 -0.140233 -0.216238 0.296273 0.071041 -0.023914 -0.182699 0.083887 0.137333 0.113301 -0.339253 0.128642 0.070088 0.178739 0.142175 0.284813 0.084102 0.151204 -0.034171 -0.215898 -0.473500 0.130103 0.101961 -0.242145 -0.167959 -0.082017 0.187200 -0.109081 0.310904 0.039303 -0.116411 -0.247365 -0.417544 -0.244930 0.096009 -0.180887 0.285976 0.227170 0.225290 0.519886 0.169792 -0.283707 0.048712 0.130831 0.165825 0.188487 0.042880 -0.016280 0.115022 -0.034046 -0.059871 0.271779 -0.407954 -0.081600 0.317138 -0.330473 -0.089406 -0.135936 0.084855 0.001152 0.347892 0.117112 0.029331 0.267049 -0.357914 -0.038146 -0.235243 -0.100887 -0.161065 0.003200 -0.112904 -0.191486 -0.076161 0.162735 -0.263269 -0.146576 0.205082 -0.137338 -0.325873 -0.106830 0.521471
human -0.116524 0.221278 0.223803 0.101220 0.243306 0.001461 0.046630 -0.001904 0.365122 0.108980 -0.012453 0.037919 0.040346 -0.173211 -0.064873 -0.097248 0.025347 0.267495 -0.014183 0.184744 0.103811 0.079149 0.146045 -0.381593 -0.171239 -0.379649 -0.013509 -0.486360 -0.500613 -0.008352 0.207612 0.007313 -0.071756 -0.245904 -0.062011 -0.030091 -0.111596 0.195371 0.210329 -0.034938 0.061244 -0.058040 -0.088675 -0.391852 -0.067331 0.374757 -0.284493 0.151844 0.244347 -0.062859 0.235662 0.122882 -0.022228 -0.042362 -0.035810 -0.313656 -0.014156 0.067309 -0.404755 -0.242452 0.031587 0.143120 0.321453 -0.369280 -0.137218 -0.096743 0.114462 0.199028 0.135429 -0.080210 -0.263939 0.030169 -0.020764 0.162665 -0.010054 -0.221432 0.169047 0.369677 0.135895 0.410831 -0.376054 0.068028 0.056435 -0.134334 0.350848 0.042714 -0.112729 -0.004963 0.242140 0.192945 -0.176519 -0.239258 0.070900 -0.380219 0.094578 -0.447113 -0.154476 0.146679 -0.201240 -0.000899 0.409006 -0.101676 0.209393 -0.176239 0.009336 -0.189254 -0.345946 0.021772 0.498905 -0.092390 -0.005920 0.161778 -0.000719 0.102755 0.253217 -0.054730 0.026185 -0.068911 -0.117352 0.201973 -0.100199 0.265440 -0.186007 0.441906 -0.013125 -0.094264 0.093587 -0.147775 0.040563 -0.139973 -0.522303 0.141474 -0.214025 0.254845 0.162185 0.320671 0.082302 0.004999 -0.178443 0.066339 -0.113092 -0.411626 0.259799 -0.348779 0.119132 0.210974 0.247175 -0.269662 -0.247177 -0.164812 -0.011990 0.141278 -0.128260 -0.154624 -0.000156 0.151772 -0.389921 -0.300018 -0.207797 0.034388 -0.367662 0.052495 0.113864 -0.134304 -0.116445 0.009085 0.253486 0.098924 -0.042208 -0.040435 0.149132 0.114173 -0.141017 0.127546 -0.266987 0.160173 0.095673 0.040942 -0.171041 -0.240179 -0.026834 -0.028983 -0.356132 0.215935 0.166076 0.228470 0.165019 0.139606 -0.061126 -0.341006 -0.282255 0.209162 -0.027471 0.055823 0.315378 -0.061668 0.203952 -0.232181 0.055001 0.024347
humans -0.116223 0.087491 0.166056 -0.062691 0.119686 0.200130 0.340443 -0.036689 0.133496 0.162715 0.258842 0.070844 -0.126739 0.095094 0.120009 -0.098248 0.185252 -0.059149 0.274878 0.174132 0.039708 0.125007 0.045178 -0.355971 -0.145045 -0.228036 -0.382224 -0.093064 -0.309523 0.012992 0.216615 0.093998 0.042440 0.090418 0.014681 -0.055756 0.392416 0.430453 0.186374 0.153975 0.066808 -0.170225 -0.168004 -0.235642 0.217075 0.029988 0.249845 0.252108 0.146241 0.312700 -0.238343 0.039418 0.197640 0.027292 0.028673 -0.024170 0.127954 0.309951 -0.157571 -0.085374 -0.157179 -0.097498 0.146294 -0.157595 0.109822 0.053836 0.257059 -0.095951 0.139458 -0.024590 -0.118468 -0.019419 -0.029511 0.032006 -0.251913 -0.257686 0.086423 0.178204 -0.014798 -0.035319 -0.386909 0.149383 -0.182415 0.040244 -0.019399 0.313782 -0.312174 -0.113361 0.190038 0.251248 -0.174836 -0.201996 0.023075 -0.481199 0.017442 -0.079938 -0.380733 -0.088017 -0.414258 0.019166 0.264157 0.116974 0.029234 -0.202563 -0.199394 -0.177387 -0.117166 -0.242436 0.311854 0.323564 0.073258 0.163122 0.012565 0.072635 0.394651 0.048751 0.280747 0.019381 0.026417 0.084939 -0.044879 -0.186417 -0.069810 0.024802 -0.087615 0.165917 -0.036630 0.218854 0.289246 -0.230094 -0.509354 0.022957 0.306230 0.235506 -0.118984 0.093983 0.204640 -0.095966 -0.063738 0.251467 0.010555 0.047363 -0.032406 -0.472601 0.055631 -0.217571 -0.174022 -0.116231 -0.306142 -0.230201 -0.044732 0.003597 -0.275021 -0.022211 -0.085861 0.027558 0.007724 -0.104493 -0.018749 -0.049543 -0.182713 0.203434 0.044290 0.114677 0.100853 0.115267 -0.273404 -0.268681 -0.179684 0.267699 0.083259 0.176758 -0.006173 -0.010916 -0.348610 0.203703 0.001275 0.081873 0.134499 0.119913 -0.184411 -0.274509 -0.253728 -0.221975 0.332268 -0.083889 0.054125 0.032820 -0.038953 -0.336111 -0.485893 0.015456 -0.341291 -0.065950 0.269882 0.186589 -0.076978 -0.018450 -0.136937 0.212137
kitten 0.145048 -0.063784 -0.050257 0.280433 0.096130 0.157054 0.034117 0.069944 0.095478 -0.148345 -0.203981 0.037543 -0.152281 -0.036408 -0.079004 -0.027796 0.069941 -0.052910 0.105791 0.164894 0.230927 0.148863 0.459720 0.162319 0.017991 -0.257435 0.254501 -0.108647 0.089929 0.004640 0.042228 -0.167351 -0.220936 0.040677 -0.050129 -0.114799 -0.080877 -0.033206 0.073873 0.169419 0.030790 -0.051292 -0.272910 -0.285422 0.230698 0.174616 0.034583 0.135532 0.000728 0.544099 -0.073175 0.022525 0.008358 0.161046 0.120850 -0.329708 -0.066069 0.052028 -0.009237 0.005943 -0.067845 -0.038417 0.055639 -0.031612 0.103290 0.168552 -0.170135 -0.164692 -0.066637 -0.112494 0.108395 -0.184759 -0.026796 -0.157451 0.018730 -0.337285 -0.010989 0.292415 -0.152337 -0.003348 -0.213605 0.278806 0.049960 0.004564 0.189222 0.113283 -0.629215 0.077759 -0.027397 0.009830 -0.107219 -0.124502 0.095302 -0.415611 0.465388 -0.342485 0.046676 -0.236262 -0.095753 0.079778 0.069216 0.136044 0.192161 -0.084163 -0.061894 0.075728 -0.281764 0.193304 0.299320 0.072308 0.064769 0.113996 -0.007655 0.045463 0.000299 0.520484 0.117205 0.398192 0.026786 0.114984 -0.013973 0.125455 -0.292251 -0.056563 -0.269689 0.193682 0.095290 0.103904 -0.137284 0.021415 -0.125254 0.015122 -0.136762 -0.271232 -0.072932 -0.213277 0.116220 0.063266 -0.189047 -0.097370 0.240342 0.113684 0.157764 -0.206029 0.021217 0.135407 0.055553 0.290255 -0.033622 0.082249 0.286689 -0.139719 -0.125543 -0.027887 0.475629 -0.133155 -0.032871 -0.366467 0.012932 0.220966 -0.055312 0.371840 0.081074 0.135084 0.309856 0.128511 -0.186640 0.096885 -0.084390 -0.024521 -0.225672 0.228110 0.048758 0.147723 -0.097342 0.035509 0.043020 0.038118 -0.054711 -0.019511 0.510907 0.022397 0.121274 -0.373698 -0.128471 -0.042833 -0.413660 0.002533 -0.009832 0.107091 0.129523 0.273060 0.177367 -0.089348 -0.091617 0.279575 -0.202724 -0.100725 0.060305 0.342324
kittens -0.153916 -0.181676 -0.110040 0.042671 -0.036478 0.236765 0.018291 0.006636 -0.144838 0.111754 -0.143531 0.165997 -0.056765 0.037134 0.164846 0.143769 -0.082206 -0.145310 0.326886 0.161584 0.202323 0.185553 0.152753 -0.041372 0.122351 -0.100375 -0.046780 -0.093820 0.233032 0.050448 -0.108609 -0.330859 -0.209970 0.109773 0.089099 -0.343904 -0.054905 0.144369 0.071715 0.019383 0.022751 -0.004277 -0.059488 -0.324602 0.184565 0.022959 0.196669 0.366982 -0.078427 0.576873 -0.289246 0.253779 0.287110 -0.193544 0.078000 -0.264999 -0.168792 -0.142051 -0.116543 0.044408 -0.126777 -0.232851 -0.004036 -0.104768 0.258762 0.171305 -0.007222 -0.142228 0.190438 -0.227023 0.083062 -0.034258 0.049123 -0.243524 -0.051116 -0.160048 -0.024000 0.203358 -0.299264 -0.049973 -0.415063 -0.098498 -0.237848 -0.128452 -0.088379 0.417694 -0.530400 0.015120 -0.120639 0.211834 -0.017832 -0.049764 0.159884 -0.089848 0.455479 -0.437471 0.062443 0.152054 -0.206840 0.007207 0.106025 0.053318 0.204751 -0.058383 -0.290762 0.117400 0.064890 0.005195 0.211370 0.065759 0.000503 0.164565 -0.217719 0.043810 0.438879 0.077840 -0.019873 0.647653 0.009233 0.150406 0.009178 -0.013297 -0.174208 0.115953 -0.095543 0.104900 0.112153 0.238878 -0.093213 -0.176417 -0.223221 0.175293 0.035283 0.043018 -0.222143 0.096844 0.174281 -0.237593 -0.252323 -0.139135 0.309927 0.023878 -0.028138 -0.393753 -0.080992 -0.105453 0.018528 -0.032524 0.004733 0.060390 0.003413 -0.051222 -0.360470 -0.075579 0.192250 -0.123008 0.110924 -0.164265 0.031029 0.086488 -0.272882 0.478160 0.205816 -0.024264 0.234759 0.461710 -0.292786 0.161319 -0.199596 0.005604 -0.024973 0.059159 -0.241862 0.079046 -0.040528 0.116474 -0.127350 -0.194316 -0.038185 0.037778 0.454855 0.105397 -0.182176 -0.435994 -0.073690 -0.154204 -0.150191 0.023950 -0.045092 -0.085415 -0.158975 -0.140397 0.204498 0.093856 0.111030 0.320300 -0.222063 -0.125312 0.213528 0.326178
lemon 0.961080 -0.456637 -0.055192 -0.428197 0.156907 0.282586 0.424155 -0.085692 -0.178639 -0.021483 -0.759337 -0.494771 -0.719335 -0.278820 0.078874 -0.246529 -0.065960 -0.117232 0.446851 0.104294 0.333084 0.143101 -0.358862 -0.374383 -0.375357 0.121552 0.445459 -0.016557 0.535567 0.146295 -0.009596 -0.521836 -0.125976 0.314820 0.742162 -0.342516 -0.358832 -0.178733 -0.052874 0.207821 0.307715 0.073615 0.307692 -0.559289 0.388630 0.146779 -0.214536 0.097287 0.335402 -0.473754 0.100540 -0.513635 -0.182968 -0.044690 -0.060622 -0.783495 0.083572 -0.073372 -0.359742 0.128157 0.394958 -0.344292 0.330459 0.556377 -0.231131 -0.192375 -0.075491 -0.464504 0.563754 0.279111 0.186198 0.046432 0.481201 -0.143931 0.510897 0.361254 0.237329 0.501404 -0.285503 -0.045283 0.442327 0.010729 -0.311706 0.060410 -0.444163 -0.037260 0.029492 0.006889 -0.178252 -0.150086 0.115672 -0.002823 0.062319 -0.184282 0.303117 -0.346533 -0.129929 -0.243186 -0.211833 0.107316 0.219881 0.127273 0.191499 -0.378836 -0.247332 0.294458 -0.250538 0.750775 0.415669 0.342841 0.138953 -0.381416 0.021928 0.007221 -0.094304 -0.216826 -0.286820 0.086330 -0.245978 -0.096255 0.006591 -0.495867 0.595909 0.221437 0.432291 -0.367124 -0.302317 0.140466 0.792181 -0.074712 0.186407 0.034871 -0.199716 -0.110549 0.321717 0.482339 0.120553 -0.040936 -0.570470 -0.155439 0.398274 0.212632 -0.309574 -0.329607 0.277115 0.274648 -0.097234 0.438596 0.486562 0.173357 -0.228529 -0.763157 -0.260616 0.471984 0.066584 0.498886 0.175676 0.663558 -0.484075 -0.062176 -0.062426 0.113161 0.315365 0.539714 0.299472 0.500363 -0.322901 0.150538 -0.257270 -0.112353 -0.174608 -0.165124 0.126719 0.236338 -0.266264 -0.033692 -0.065790 0.154387 -0.078280 -0.009512 0.546909 -0.148458 0.240643 -0.492844 -0.481048 -0.460260 -0.012274 0.003371 0.414532 0.135505 -0.032963 -0.261352 -0.089266 -0.681481 -0.513593 0.102656 -0.089899 -0.289828 0.072739 0.174849
lemons 0.646426 -0.227056 0.016607 -0.366034 -0.027341 0.285945 0.241619 -0.121929 -0.171542 0.025364 -0.357291 -0.138358 -0.418867 -0.028540 0.114522 -0.296996 -0.110323 0.069833 0.389246 0.020441 0.514915 0.258002 -0.086195 -0.372175 -0.502400 -0.134311 0.215494 -0.147237 0.197982 0.091467 0.006106 -0.276542 -0.127780 0.132452 0.477549 -0.254445 -0.112815 -0.092203 -0.054976 0.158112 0.324320 0.118932 0.069876 -0.433811 0.508045 0.042747 -0.081905 0.169425 0.101492 -0.243748 -0.077114 -0.229261 -0.034014 0.079418 -0.065507 -0.395129 0.110597 -0.136558 -0.236188 0.063259 0.325967 -0.430556 0.272115 0.239750 -0.246136 -0.114171 -0.040660 -0.274726 0.367258 0.305009 -0.007344 0.165548 0.300443 -0.008767 0.245013 0.165829 0.065501 0.274766 -0.210121 0.001573 0.143269 -0.259642 -0.286564 0.019908 -0.309973 0.116426 0.117413 -0.156544 -0.092833 -0.464173 -0.021326 -0.046976 -0.137213 0.004087 0.257982 -0.390733 -0.024235 -0.380006 -0.275241 0.266591 0.387723 0.116969 0.044427 -0.216062 -0.366033 0.284785 -0.409105 0.424406 0.222886 0.235793 0.164405 -0.252130 -0.154547 -0.017702 -0.080139 -0.202038 -0.184565 0.152095 -0.142490 -0.367250 0.125292 -0.423529 0.339116 0.120630 0.156219 -0.458405 -0.213024 0.025630 0.414827 -0.224369 0.017521 -0.062491 -0.057370 0.042171 0.173390 0.218720 0.197590 -0.167111 -0.359465 -0.080119 0.196333 0.122399 -0.176939 -0.199588 -0.031686 0.134418 0.044838 0.318790 0.360066 0.054969 -0.391959 -0.376062 -0.436030 0.062271 0.055656 0.352183 -0.087978 0.377825 -0.183298 -0.019515 -0.028586 0.100951 0.167428 0.377646 0.158995 0.180971 -0.176356 0.115272 -0.031832 -0.032753 0.002397 -0.131085 0.021464 0.312402 -0.207995 0.048052 -0.069748 0.054673 -0.196772 0.154008 0.465526 -0.133367 0.138303 -0.317816 -0.159417 -0.254960 0.209512 0.032688 -0.008489 0.016729 -0.209725 -0.306069 0.224195 -0.287243 -0.224665 0.007827 -0.078477 -0.192386 0.146921 0.052439
leopard 0.162686 -0.052754 0.259055 0.031184 -0.181220 -0.192686 -0.122742 0.235344 -0.220727 0.127309 0.032933 0.012447 -0.012220 0.178863 -0.128176 -0.269514 0.162202 -0.015887 0.037302 0.106576 0.150356 0.062996 -0.071624 0.069003 0.267735 -0.022406 0.170118 -0.296430 0.199082 -0.032455 -0.196051 -0.153235 0.138478 -0.250154 0.202522 -0.162510 0.210629 -0.009982 0.059385 0.194110 0.026020 0.041113 -0.012572 0.065359 0.151551 0.067893 0.100621 0.393756 0.079216 0.026541 -0.165781 -0.057357 0.289276 -0.077039 0.232927 -0.081494 0.041267 0.013209 0.075419 0.242190 -0.220804 -0.174797 0.362833 -0.412593 -0.027030 0.149231 0.162494 -0.376100 0.065822 -0.237663 -0.073101 0.154970 0.397926 -0.243934 0.137099 -0.068180 -0.099950 0.463022 -0.151598 0.138126 -0.174170 0.045034 0.085959 0.228422 0.065303 0.179040 -0.538592 0.082633 0.166043 0.393360 -0.068306 -0.058909 0.249371 -0.112921 0.130043 -0.191023 0.036568 -0.174855 0.147502 -0.004795 0.181050 0.020027 0.303977 -0.301267 -0.404489 0.151444 -0.064538 -0.067939 0.306691 -0.054754 0.113431 0.299064 -0.053650 -0.042931 0.256785 0.127926 0.228604 0.490658 -0.237980 0.001201 -0.015341 -0.201714 -0.136965 0.015500 -0.187866 0.447777 0.479506 0.099708 0.070568 -0.364722 0.094220 0.020467 0.028578 0.233048 -0.418528 0.037441 0.377108 -0.192208 -0.181948 -0.075908 0.069675 0.115883 0.069866 -0.191817 -0.037692 0.280603 -0.114086 0.071979 -0.009001 0.011743 -0.032785 0.145171 -0.313692 0.232560 0.110168 -0.090965 -0.009763 0.095144 0.134159 0.251943 -0.009764 0.143635 0.304701 -0.048169 0.361085 0.181287 -0.115376 -0.299047 0.026161 -0.041851 -0.317436 -0.008066 -0.019883 0.065022 -0.210047 0.120538 -0.191368 -0.051277 0.192569 0.027619 0.145263 0.110590 0.115549 -0.204854 0.090186 -0.098542 -0.246728 0.114741 0.036634 -0.205603 0.089865 0.047473 0.225623 0.099896 -0.250665 0.294808 0.052473 0.014482 0.207039 0.347050
leopards -0.065861 -0.276531 -0.032804 0.093031 -0.214055 0.251941 0.206751 -0.150732 0.015818 0.238778 0.267552 -0.453657 0.087251 0.062568 0.227182 -0.057013 -0.056210 0.096706 0.383054 -0.299614 -0.079593 -0.218340 -0.173331 -0.107792 -0.194561 -0.033773 0.046291 -0.094414 -0.046692 -0.287210 -0.552810 0.107971 -0.428334 -0.292139 0.174335 -0.080789 0.013051 0.567055 0.083482 0.051847 -0.110958 -0.477824 -0.101580 0.024687 0.067726 -0.257913 0.080082 0.346173 -0.012446 0.327400 0.203926 -0.022058 -0.005955 -0.326688 -0.098210 -0.348974 0.280955 -0.389258 -0.044995 -0.187861 -0.295778 -0.126411 0.589503 -0.216293 0.266342 0.288877 -0.045032 -0.219853 0.247213 -0.117777 0.213378 0.357174 0.417957 -0.372702 0.420552 -0.280783 -0.444646 0.514823 -0.293212 0.299599 -0.182369 -0.003539 -0.689812 0.440773 -0.252701 0.581705 -0.479781 0.015614 -0.064097 0.104304 0.611361 -0.278523 0.261187 0.170262 0.319863 0.456079 0.328860 -0.144110 0.124977 -0.189183 0.158421 -0.019376 0.407162 0.175776 -0.102624 -0.129997 -0.294668 -0.526629 0.537987 0.466351 -0.028715 -0.378096 -0.559880 -0.523878 0.016055 -0.233374 0.011310 0.374475 -0.081927 -0.118625 -0.178274 -0.396536 -0.251579 -0.173880 -0.075709 0.718454 0.583434 0.049127 0.273099 0.012788 -0.074665 0.274724 0.301202 -0.039504 -0.787316 -0.014128 0.259728 -0.041637 0.052174 0.162871 0.173231 0.420418 0.206907 -0.394356 -0.217857 0.329942 -0.407883 -0.032183 -0.017768 -0.172154 -0.033256 0.522772 -0.202532 0.436247 -0.204712 0.004763 0.237635 -0.094832 0.195575 0.309411 -0.198013 0.417472 0.339868 -0.175973 0.473409 -0.222165 -0.320343 0.030402 0.424929 0.069186 0.339680 0.251572 -0.032352 -0.212747 -0.120588 -0.000210 0.148380 -0.434820 0.064964 0.321881 -0.086209 0.352353 -0.269047 -0.259014 -0.102225 0.058540 0.045009 0.000940 0.204292 -0.402388 -0.230228 0.011702 -0.237625 0.196877 -0.047085 0.474629 0.362002 -0.223378 0.297645 0.441904
lime 1.010361 -0.358026 -0.035082 -0.224594 0.159021 0.219890 0.325746 -0.163779 -0.184098 0.114689 -0.619436 -0.489363 -0.694675 -0.172519 0.187530 -0.357722 0.104913 -0.186319 0.251951 0.179853 0.248816 0.099091 -0.238140 -0.142882 -0.392132 -0.063309 0.398386 0.244741 0.559444 -0.080437 -0.106603 -0.493329 0.003777 0.145403 0.498671 -0.260360 -0.215761 -0.026153 -0.034572 0.110652 0.338235 0.076930 0.144924 -0.531790 0.480835 0.071956 -0.129620 0.083053 0.379039 -0.513770 0.182104 -0.270324 -0.207830 0.013022 -0.031529 -0.670586 0.080457 -0.200515 -0.224385 0.254867 0.238779 -0.333142 0.416683 0.234628 -0.361818 -0.188879 -0.155930 -0.637247 0.542565 0.306062 0.343846 0.109624 0.451241 -0.163776 0.449650 0.472690 0.198611 0.370226 -0.376480 -0.141432 0.406127 -0.029906 -0.387364 -0.002661 -0.341194 -0.122828 -0.041760 -0.022217 -0.132525 -0.034352 0.021220 -0.079801 0.164352 -0.106139 0.220160 -0.295512 -0.268169 -0.067311 -0.115444 0.165457 0.113062 0.043441 0.162512 -0.391943 -0.174508 0.127997 -0.176769 0.732440 0.235991 0.202394 0.113050 -0.254493 0.050640 -0.003311 -0.098805 -0.247068 -0.311243 0.044878 -0.115874 -0.037218 0.015307 -0.488851 0.732012 0.192991 0.340031 -0.344906 -0.119336 0.134233 0.628045 -0.169293 0.259180 0.238453 -0.320567 -0.113900 0.263333 0.286539 0.144218 -0.210057 -0.411136 -0.327228 0.373250 0.027384 -0.245135 -0.490509 0.181252 0.293083 -0.032366 0.273599 0.371000 -0.000367 -0.445433 -0.638097 -0.246327 0.374260 0.011575 0.500856 0.106603 0.619391 -0.328985 -0.108928 0.086260 -0.084863 0.186720 0.414996 0.361406 0.489207 -0.328594 -0.017195 -0.099588 -0.155763 -0.127948 -0.117970 -0.018206 0.421093 -0.186640 -0.091811 -0.082817 0.125845 0.088185 -0.019775 0.636690 -0.070731 0.397717 -0.413737 -0.425266 -0.299889 -0.185670 0.052436 0.325766 0.089776 0.013474 -0.153733 0.025530 -0.443441 -0.189392 0.166110 -0.070434 -0.303917 0.141564 0.412414
limes 0.601141 -0.153074 0.103711 -0.264924 0.083312 0.601804 0.313256 -0.218868 -0.373336 0.027252 -0.658193 -0.643459 -0.525934 0.002157 0.099308 -0.268612 0.029734 -0.077373 0.485428 0.074049 0.363055 0.097119 -0.265343 -0.445072 -0.411293 -0.240502 0.282995 0.202794 0.309806 0.204339 0.128772 -0.332346 0.001944 0.055643 0.668555 -0.297991 -0.225094 0.034938 -0.107263 0.228316 0.079354 -0.071326 0.008243 -0.477917 0.596197 0.001056 -0.166706 0.033454 0.161310 -0.375201 0.012703 -0.290203 -0.149923 -0.032785 0.115797 -0.724515 0.207177 -0.227086 -0.267788 0.211333 0.503418 -0.297121 0.401722 0.114156 -0.244750 -0.029533 -0.119763 -0.338151 0.611870 0.282340 0.142528 0.038837 0.437740 -0.174140 0.609991 0.395377 -0.150680 0.293835 -0.204699 -0.151675 0.219545 -0.208792 -0.449256 -0.163888 -0.265272 0.032730 -0.019575 -0.288564 -0.148572 -0.411799 0.050433 -0.083830 -0.026043 -0.082619 0.172501 -0.546009 0.122524 -0.397795 -0.336323 0.185898 0.203295 -0.055239 0.204624 -0.391450 -0.237072 0.291635 -0.296252 0.497473 0.136923 0.326615 0.115346 -0.162970 0.039464 -0.106245 0.084541 -0.381545 -0.292173 0.084962 -0.176992 -0.201708 -0.116369 -0.502935 0.660706 0.263314 0.281003 -0.527403 -0.264398 0.208857 0.545259 -0.168481 0.065842 0.023657 -0.072945 0.033679 0.005515 0.406133 0.012464 -0.149678 -0.264797 -0.292444 0.534394 0.071548 -0.350362 -0.572589 0.186588 0.445575 0.302341 0.121385 0.176241 0.014728 -0.454305 -0.487418 -0.453575 0.044273 0.020334 0.365389 -0.151795 0.447325 0.037531 -0.286640 -0.064223 0.001973 0.283534 0.272092 0.247938 0.389416 -0.522383 0.273294 0.062404 -0.023314 0.084818 -0.169354 0.026551 0.421759 -0.012519 0.065907 -0.121209 -0.000289 -0.356793 0.115811 0.617287 -0.126357 0.394641 -0.315910 -0.203864 -0.372429 0.016853 -0.279732 0.055127 -0.049753 -0.115273 -0.373401 0.200572 -0.518463 -0.175170 -0.040055 -0.169580 -0.259174 0.085130 0.135645
lion 0.060811 -0.072725 -0.036108 0.117730 -0.046760 -0.051737 -0.082949 0.273758 0.076381 0.039575 -0.101310 0.019586 0.077729 0.041813 -0.044305 -0.014352 0.027994 -0.008185 0.186392 0.123748 0.064315 0.136310 -0.037380 0.032081 0.269336 -0.055319 0.154454 -0.059952 0.063429 0.127204 -0.112283 -0.244473 -0.017584 -0.118136 0.034396 -0.106023 0.182206 0.037881 0.209797 0.127903 0.138632 -0.052903 0.010015 -0.090016 0.285207 -0.156485 -0.010920 -0.131939 0.078294 0.050048 0.155885 0.002518 0.096201 0.082820 0.046147 -0.510809 0.194091 -0.205062 -0.158727 0.125140 -0.040364 -0.142111 0.241931 -0.070135 0.120765 0.316798 0.059598 -0.442648 0.275363 -0.248337 -0.089065 -0.162712 0.101267 0.061043 -0.099183 -0.007127 -0.181360 0.299923 -0.184047 -0.135846 -0.217348 0.351525 0.045698 0.226798 0.021480 0.239357 -0.396650 -0.096676 0.336371 0.195879 -0.200733 -0.159571 0.137125 -0.248446 0.039531 -0.036524 0.064817 0.077320 -0.030948 -0.359247 0.047994 -0.054323 0.058952 0.009064 -0.160868 -0.257851 -0.108019 -0.129997 0.145255 0.100535 -0.143175 0.045998 -0.027236 -0.412261 0.377395 0.039884 -0.189191 0.261770 0.045872 -0.290987 -0.061509 -0.016200 0.047910 0.275846 0.176050 0.269838 0.202270 0.312716 0.098606 -0.179003 0.177449 0.108061 0.245448 0.174229 -0.125322 -0.055131 0.366987 0.017159 0.031560 -0.092294 -0.031077 0.157752 0.059056 -0.045927 -0.214835 0.156225 -0.308606 0.063035 0.317167 0.042679 0.446023 0.394691 -0.004251 -0.092767 -0.051106 0.028675 -0.111698 -0.090516 0.158517 0.630600 -0.042241 0.118141 0.137975 0.019317 -0.009801 0.043207 0.271231 0.154238 -0.327167 0.205770 -0.049271 -0.064898 0.058528 -0.091585 0.312407 -0.003311 0.185793 -0.066098 0.224790 -0.049324 0.253478 0.184365 0.154118 -0.248394 0.040746 0.056675 -0.172926 0.282773 0.054938 0.345907 0.194981 -0.057894 -0.137868 0.147818 -0.065308 -0.126265 0.037575 0.196547 -0.087828 0.455361
lions 0.063820 0.102187 -0.034206 0.056760 0.024211 0.051318 0.009607 -0.028823 -0.039460 0.008879 0.363436 -0.139763 -0.276864 -0.180274 0.043307 0.139988 0.156092 0.072162 0.129140 -0.038714 -0.037634 -0.131101 -0.042596 0.205404 0.036086 0.078559 -0.056842 -0.120342 -0.077588 -0.096764 -0.231849 -0.045995 -0.111962 -0.280677 0.058041 -0.288785 0.129833 0.317076 0.247703 0.069782 0.063349 -0.050088 0.058020 -0.313258 -0.146653 -0.016735 -0.043805 -0.064300 0.276878 0.197320 0.232636 0.115009 0.340437 -0.156986 0.040380 -0.294368 0.051787 0.003292 -0.030343 -0.167781 0.213966 -0.321578 0.117702 -0.236682 0.284915 0.281988 0.089943 -0.313633 0.112801 -0.030024 0.148817 0.103149 0.155130 -0.102866 0.263952 -0.245126 -0.300908 0.094402 -0.126384 -0.031741 -0.259453 -0.189861 -0.225686 0.394361 -0.488162 0.088016 -0.376497 -0.346472 -0.099907 0.184840 0.133012 -0.001780 0.035683 0.074532 0.284850 -0.032570 0.116450 -0.183744 -0.107923 -0.138224 0.100506 0.020764 0.105651 -0.013286 -0.034727 -0.286575 -0.246496 -0.437098 0.214079 0.161791 0.014043 0.058072 -0.048266 -0.205378 0.344780 -0.035900 0.035018 0.233573 0.005942 -0.301473 -0.085105 -0.466419 -0.278491 -0.321687 0.041386 0.317457 0.108908 -0.076469 0.372032 0.158523 -0.110142 -0.053100 0.048134 -0.051026 -0.451116 0.031032 -0.015452 0.300477 0.047324 -0.130181 -0.044982 0.260285 0.062952 -0.320093 -0.381948 -0.049430 -0.121090 0.152431 -0.114011 -0.198899 0.178375 0.150941 -0.187519 0.133616 -0.159775 -0.114975 0.162820 0.061862 0.036092 0.082124 0.075410 0.277257 0.169527 0.146339 -0.044315 -0.025449 0.217789 0.046382 -0.046972 0.168241 0.142825 -0.136096 -0.230193 -0.325659 0.052575 0.195230 -0.011819 -0.111706 0.055240 -0.106516 0.175771 0.067771 -0.261537 -0.104619 0.088143 0.195825 -0.056155 -0.231389 0.405527 -0.195114 -0.064503 0.091371 0.068742 0.192735 -0.034490 0.253689 0.214637 -0.100067 0.223009 0.349505
man -0.071286 -0.004670 -0.051605 0.115984 -0.039491 -0.071893 -0.012119 -0.075585 0.270893 -0.087096 -0.060950 0.094271 -0.044274 0.071719 0.024992 0.027605 0.167241 0.023744 -0.012181 0.202412 0.230196 0.144108 -0.102541 0.265233 0.198249 -0.050636 0.139267 -0.062958 0.069864 0.159894 0.015676 -0.106485 -0.069602 -0.019909 -0.110929 -0.012409 -0.075890 -0.032290 0.107428 0.177469 0.192461 0.023273 -0.122500 -0.255020 -0.214934 -0.043076 -0.057185 -0.069147 0.042043 0.322848 -0.007128 -0.060366 0.064075 0.059715 0.008206 -0.027758 -0.048933 0.154363 0.020965 -0.110451 -0.034162 0.024435 -0.061389 -0.057263 0.332731 0.153405 -0.009573 -0.088263 0.039715 -0.131037 0.125566 -0.106687 0.151587 0.055963 -0.046424 -0.067297 -0.118944 0.179603 -0.200912 0.005750 0.119074 -0.154159 -0.137911 0.135748 -0.027481 0.060181 -0.019598 0.127539 0.003887 0.217607 0.014526 -0.065068 -0.078348 -0.029834 0.103866 -0.188387 0.043982 -0.095267 -0.099424 0.104243 0.212738 0.091061 0.152431 -0.061372 0.155647 0.072311 -0.045641 0.117548 0.186969 -0.086478 -0.055149 0.113081 -0.014836 -0.115606 0.069491 -0.061677 0.006570 0.154323 -0.243020 -0.013557 0.082749 -0.171555 0.135108 0.081859 0.130154 0.134861 0.068256 0.317389 0.064185 -0.109872 -0.245250 -0.120519 0.126164 -0.115052 -0.069902 -0.213018 0.255083 -0.005915 0.225375 0.038420 0.121108 0.114536 0.130575 -0.085487 0.087668 0.127641 0.044246 0.203068 -0.089452 -0.094099 0.162779 -0.132078 -0.033229 -0.144513 -0.079935 -0.006271 0.175130 -0.345955 -0.160298 -0.042474 0.049323 0.210384 0.059141 -0.002204 -0.068642 -0.032882 0.040932 0.002979 -0.011935 -0.049994 -0.320342 0.310565 0.035812 0.138100 -0.030148 0.189850 0.129402 0.175169 0.080388 0.158465 0.230879 0.015684 0.134501 -0.026929 0.113878 0.202365 -0.104281 -0.153649 -0.138188 -0.028095 0.054627 0.221865 0.051574 -0.043126 -0.279846 -0.001505 -0.006950 0.086525 -0.137445 0.226492
mans -0.327989 -0.053061 -0.102600 -0.423539 0.054082 -0.156670 0.409426 -0.010413 0.487648 0.057473 0.422711 -0.328227 -0.956820 -0.405443 0.500655 -0.465224 0.047766 -1.002556 -0.333416 -0.402420 0.210076 -0.527499 0.707504 0.645900 -0.731756 0.255398 -0.378110 0.216944 0.343535 0.410899 -0.568712 -0.735798 -0.196104 -0.200549 0.379789 0.239055 -0.471268 0.182443 -0.140225 0.169289 -0.440935 0.012109 -0.972374 -0.542742 0.323598 0.654335 0.205888 0.074847 -0.445517 0.074697 -0.424799 -0.230832 -0.271619 0.149328 0.539569 -0.391048 -0.177952 -0.424746 -0.059551 -0.790445 -0.751548 0.766302 0.133690 -0.226064 -0.680865 0.379905 0.171743 -0.603603 -0.543457 -0.091674 -0.013334 -0.047379 -0.032643 -0.205886 0.044334 -0.664823 -1.008531 0.830251 0.424862 0.157171 0.981596 0.692929 -0.529090 1.156356 1.065972 -0.301458 0.048550 0.099978 0.315074 -0.490284 -0.612154 0.004163 -0.593025 0.692890 0.389869 0.484219 -0.425092 -0.138208 0.141517 -0.913438 0.248454 -0.326761 0.389285 -0.575396 -0.165240 -0.067647 0.540251 -0.110643 0.406781 -0.007327 -0.199950 0.221216 0.737672 -0.056735 -0.629820 -0.369084 0.711875 -0.068008 -0.281068 -0.221963 -0.719418 -0.389548 -0.092049 0.441840 -0.573037 0.295122 0.325129 0.428368 0.524436 0.009305 -0.166068 -0.225773 -0.726263 -0.467594 0.051833 -0.221430 0.452847 -0.003946 -0.385603 -0.169139 0.038171 -0.640579 0.280440 0.373586 0.192699 -0.260720 -0.311574 0.118940 0.716800 -0.188540 -0.453560 -0.860280 -0.152372 -0.213586 -0.371195 0.044059 1.185997 0.626456 0.850211 0.009428 0.093471 0.159587 0.129030 0.042214 0.604986 -0.812777 0.243304 0.474647 0.630564 -0.130460 -0.316591 0.142199 0.292398 0.238881 -0.144527 -0.203858 0.293304 0.614209 0.151148 -0.037483 0.126806 -0.017931 0.041876 0.543043 -0.017613 0.182911 -0.715581 0.497741 0.468076 0.048763 0.040585 -0.067775 -0.223634 0.770566 0.330916 -0.037957 0.967815 -0.394947 0.120408 -0.401130
men 0.085226 0.023149 0.164144 0.234819 0.051405 0.183190 -0.333188 -0.062302 -0.075866 0.022152 0.117247 0.055089 -0.033766 0.065105 0.200200 0.142656 0.090535 -0.186983 0.187996 0.068165 0.037404 0.057602 -0.345101 0.138616 -0.017668 0.116956 0.145691 -0.094876 -0.179148 0.251712 -0.020247 -0.171082 0.058040 -0.001942 -0.132462 -0.088141 0.036447 -0.106361 0.100239 0.019403 0.125006 -0.036723 -0.085712 -0.198067 -0.038268 0.090454 0.374070 0.142394 0.068166 0.161675 -0.121310 0.150376 0.020140 -0.091509 -0.042134 -0.008672 0.184953 0.194217 -0.077806 -0.005882 -0.056891 0.364607 -0.141318 -0.003552 0.233591 0.335963 0.270645 0.172157 0.163830 -0.122163 -0.070168 -0.064451 0.160580 0.015644 0.008040 0.228141 -0.096180 0.418648 0.169018 0.240798 0.115493 -0.127640 -0.022483 -0.062443 -0.275088 0.385318 0.030724 0.315139 -0.246739 -0.047102 -0.150780 0.068578 -0.197172 -0.049726 -0.039649 -0.440778 -0.087513 0.250149 -0.198162 -0.139599 0.075317 0.002430 -0.030218 -0.070505 0.079823 0.342821 0.115935 0.077507 -0.143203 -0.132083 0.175452 0.068254 -0.002442 -0.130420 -0.124441 -0.046878 0.033836 0.124829 -0.126959 0.004124 0.040247 -0.058800 -0.074412 -0.230784 0.017968 0.023601 0.312803 0.320475 0.091366 -0.108665 -0.341318 0.217266 0.050609 -0.118580 -0.266025 -0.020985 -0.013937 -0.087281 0.050921 0.074907 -0.052239 0.156490 0.206508 0.063548 -0.080188 0.372827 -0.090333 0.091282 -0.241309 -0.145803 -0.087536 0.116594 -0.084081 -0.120341 0.020429 -0.022187 0.107330 -0.105916 0.015496 0.097838 0.093567 0.304952 0.144727 -0.100555 0.074371 0.216962 -0.043757 0.120465 0.017469 -0.122807 -0.159176 0.406785 0.026247 0.180060 0.096074 0.023675 -0.077483 0.181942 0.066745 -0.039443 0.144228 0.111843 -0.006590 -0.063642 -0.057004 -0.014002 0.079075 0.019203 0.153630 -0.041296 0.328796 -0.065561 -0.123854 -0.025461 -0.192651 0.108581 0.260345 -0.010638 0.198912 -0.017407
mens 0.166674 -0.214249 0.258986 0.341437 -0.205888 0.276529 -0.144004 0.089751 -0.067797 0.310498 0.198918 0.258399 -0.176422 0.007130 0.370674 0.034520 -0.055062 -0.283796 0.110265 -0.166323 0.207729 -0.002576 -0.159507 0.016524 -0.242094 0.158454 0.421624 0.295685 0.174814 0.120386 -0.398259 -0.155341 0.294875 -0.151143 0.075482 0.290969 0.389969 -0.178935 -0.105261 0.070159 -0.327963 -0.072923 -0.335377 -0.201948 0.010434 -0.148866 0.373289 -0.017107 0.006382 -0.308742 -0.377218 0.075054 -0.014373 0.210526 0.006127 -0.080147 0.199797 0.233546 -0.064469 0.498823 -0.341103 0.270712 -0.212231 0.356380 0.262531 0.444948 -0.013593 0.248068 0.191817 -0.041435 -0.034739 0.062540 0.067671 0.129529 -0.006752 0.529312 -0.168680 0.723790 0.255522 0.438809 0.069283 0.039080 0.290311 0.246332 -0.508640 0.016276 -0.105956 0.227107 -0.064607 -0.301558 -0.176319 0.276083 -0.076789 0.041650 -0.132963 -0.540982 -0.061362 0.527912 -0.000641 -0.243122 -0.082814 -0.252194 -0.005073 0.119322 0.199487 0.290990 -0.029941 0.014947 0.012531 0.212746 0.178000 0.095777 0.160546 -0.032552 -0.377082 -0.010168 0.461469 0.099932 -0.071763 -0.330330 -0.100711 -0.023989 -0.294464 -0.283197 -0.080079 -0.320476 0.617686 0.146580 -0.088553 -0.125815 -0.374901 -0.262323 -0.133915 -0.257371 -0.086944 -0.018745 -0.264828 0.030050 -0.054438 -0.004601 -0.330827 0.032509 0.113065 -0.101867 0.168423 0.503048 0.069445 -0.068809 -0.465056 -0.166198 -0.216453 0.151303 -0.416506 0.175121 0.266130 -0.176477 0.013953 0.004872 0.093179 -0.012462 0.106293 0.143978 0.130767 -0.267365 0.367285 0.265410 -0.023523 0.010073 -0.225896 0.075830 0.038516 0.416125 -0.063448 0.057001 -0.089362 -0.330893 -0.093545 0.313280 0.248330 -0.023101 0.082950 0.046340 0.014313 0.025514 0.017201 0.006291 0.220669 0.178874 0.211604 -0.079664 0.123560 0.015704 -0.168562 0.435043 -0.203535 0.338196 0.539932 0.053381 0.046237 -0.053178
monkey 0.000770 -0.068626 -0.104886 0.033011 -0.021779 0.037518 0.102507 0.051469 0.179549 0.051573 0.090836 0.269065 -0.063139 -0.052331 0.049162 -0.077236 0.139716 -0.099890 0.222626 0.118403 0.144372 0.231555 0.015506 -0.011060 0.113618 -0.139080 0.047364 -0.141270 0.139884 0.115410 0.081047 -0.043081 -0.108709 0.109509 0.152841 -0.086507 -0.005192 0.084691 0.127357 -0.026954 0.248871 -0.092125 -0.222790 -0.273004 0.202595 0.092173 -0.075692 0.200920 0.229823 0.291297 -0.142311 0.027520 0.263549 -0.059122 0.078849 -0.286174 0.091823 -0.056616 0.061936 0.204830 0.023751 -0.031895 0.256721 -0.062348 0.147305 0.168495 0.137159 -0.229135 0.260115 -0.252186 -0.005722 -0.036114 0.058226 -0.255490 0.140334 -0.009895 -0.084247 0.160311 -0.267321 0.141222 -0.408803 0.205361 -0.047648 -0.072515 -0.016849 0.135235 -0.380323 -0.074736 0.338657 0.157108 -0.074930 -0.200203 0.074271 -0.296678 0.162909 -0.131907 -0.073378 -0.253740 -0.068633 -0.076483 0.115126 0.017232 0.218930 -0.083053 -0.072087 -0.085259 -0.077175 -0.184741 0.344366 0.192967 0.064950 0.170658 -0.004757 -0.145464 0.331566 0.262684 0.021162 0.195424 -0.040077 0.195838 0.007252 -0.123013 0.019178 0.316221 -0.042127 0.132120 0.067969 0.282246 0.020713 -0.051164 -0.254090 0.072369 0.155266 0.059202 -0.200916 -0.320475 0.311333 0.175303 -0.177913 0.032678 0.017105 -0.077928 -0.010232 -0.308629 0.066658 -0.089889 -0.004243 0.035554 -0.093937 -0.066162 0.118924 0.018316 -0.297794 -0.138578 -0.040388 0.143408 0.144625 -0.196458 -0.060196 0.045411 0.021038 0.211575 0.136248 0.067017 0.128173 0.205831 0.032850 -0.114155 -0.141627 0.083717 0.009448 0.004030 0.029875 0.114304 -0.167076 0.040069 0.052232 0.275930 -0.028047 0.075206 0.175701 -0.146685 -0.108962 -0.343686 0.084987 -0.009931 -0.039173 0.140956 -0.010703 0.060677 -0.035079 -0.071324 -0.111610 -0.025009 -0.130515 0.068801 -0.017611 0.096643 -0.046329 0.164028
monkeys 0.011001 0.012671 -0.039098 0.099901 0.047347 0.229597 0.220503 -0.015514 -0.028770 0.131307 0.147423 0.082090 -0.081190 -0.045247 0.118607 -0.095907 0.194793 -0.301651 0.373640 0.011727 -0.022948 0.195027 -0.010168 -0.161670 -0.045610 -0.145175 -0.190678 -0.190886 0.014017 -0.008040 0.090833 0.175908 -0.132396 0.051476 0.197187 -0.211894 0.096119 0.274460 0.119409 0.129333 0.086698 -0.097376 -0.047535 -0.220332 0.281033 0.181249 0.244171 0.242975 0.127020 0.434226 -0.238262 -0.013889 0.398759 -0.056300 0.157673 -0.105744 0.177249 0.101128 -0.005168 -0.025875 -0.150646 -0.180129 0.217017 -0.253654 0.320425 0.171240 0.349443 -0.078618 0.294188 -0.211742 -0.054606 -0.087704 0.170888 -0.263544 0.015008 -0.214530 -0.058517 0.148930 -0.244148 -0.117065 -0.422445 0.071549 -0.200212 0.026851 -0.213223 0.348057 -0.385336 -0.042331 0.190020 0.254301 -0.117487 -0.223252 0.038778 -0.401072 0.223893 -0.160527 -0.169670 -0.094999 -0.399346 -0.058268 0.217966 0.021236 0.243204 -0.140828 -0.057918 -0.146180 -0.088856 -0.373364 0.246031 0.268249 0.025663 0.098299 -0.114229 -0.008223 0.492441 0.054373 0.139884 0.179378 0.109918 0.062282 0.019856 -0.260034 -0.001509 0.105871 -0.140081 0.051803 0.256983 0.212229 0.333002 -0.073158 -0.260923 0.051992 0.400461 0.261496 -0.318184 -0.040954 0.292653 -0.055195 -0.290083 0.151422 0.165040 -0.060214 -0.095096 -0.532954 0.034287 -0.000488 -0.197575 -0.048323 -0.201421 -0.053368 -0.171017 0.164042 -0.377167 -0.148400 -0.116543 0.073756 0.241205 -0.164228 0.241644 0.071625 -0.192865 0.201838 0.043028 0.052251 0.182401 0.294083 -0.057276 -0.193983 -0.027731 0.081900 0.063219 0.091588 -0.077513 -0.081321 -0.332735 0.079004 -0.043661 0.076027 0.040012 0.094339 0.080501 -0.185199 -0.288040 -0.352468 0.190503 -0.007903 0.061851 0.032166 0.003707 -0.038956 -0.151686 0.001509 -0.261593 -0.012824 0.148629 0.236052 -0.120132 0.040424 -0.068421 0.304358
owl 0.277121 0.030163 -0.204671 -0.122163 -0.046061 0.180191 0.063288 0.118187 0.045214 0.139361 -0.057940 -0.009612 -0.042580 -0.200814 0.000930 -0.170050 -0.086370 -0.149056 0.221585 0.379749 0.270053 0.106257 -0.133759 0.020075 -0.022079 -0.200924 0.192911 0.046957 0.117710 -0.213147 0.107627 -0.272956 -0.146892 -0.024782 0.100296 -0.052815 -0.003127 0.083090 -0.028991 -0.044387 0.050880 -0.114959 -0.070467 -0.167566 0.439115 0.155320 0.043530 -0.019170 -0.037255 0.316875 -0.012242 -0.175049 0.186147 -0.057884 0.222689 -0.262151 -0.291516 -0.049897 -0.015217 -0.115769 0.023534 -0.298422 0.205954 -0.198867 0.236146 0.221370 0.350945 0.140910 0.050966 -0.190472 0.223230 -0.035258 0.003015 -0.156281 -0.030392 -0.206430 -0.141928 0.234551 -0.234833 0.044669 -0.507512 0.105471 0.131515 0.052691 -0.116851 0.232226 -0.226565 -0.094516 0.202357 -0.089310 -0.183512 0.053230 0.228545 -0.081882 0.211024 -0.360762 -0.088961 -0.043076 -0.207338 0.026774 0.013284 0.224466 0.611303 0.074853 -0.228634 -0.060550 0.130351 -0.226662 0.476162 0.017819 0.029830 0.306025 0.075219 0.015627 0.402365 0.050275 -0.192534 0.441012 -0.096828 0.148762 0.006329 -0.259740 -0.062202 0.160669 0.058513 0.106010 0.195934 0.096302 0.026603 -0.175752 -0.047502 -0.003041 -0.045641 0.022611 -0.354632 -0.271981 0.578480 -0.020352 -0.209783 0.220944 0.249510 -0.366004 -0.101030 -0.428606 -0.058834 -0.241819 -0.028196 0.038162 -0.159624 -0.157169 0.280554 -0.142751 -0.335525 -0.028714 -0.124880 0.156942 0.283273 0.037617 -0.178613 0.398787 -0.233467 0.109186 0.417999 -0.055580 0.135328 -0.013548 -0.029029 -0.191284 -0.019249 0.191810 -0.237462 0.020642 -0.081598 0.254819 -0.265086 0.223557 0.020487 -0.013810 0.060300 0.187040 -0.069900 0.104132 0.003108 -0.265876 0.093375 0.208445 -0.371819 0.037372 0.206903 -0.176218 -0.128152 -0.061083 -0.165706 -0.077631 0.012355 0.035200 0.076112 -0.142504 -0.067452 0.304848
owls 0.145815 0.015183 0.030320 0.055433 0.124856 0.351580 0.043030 0.159729 -0.173955 0.077815 0.215923 0.070376 -0.227655 -0.278908 0.195323 -0.021622 -0.023465 0.060108 0.064291 0.151191 0.021684 0.176355 -0.205439 -0.079840 0.050102 -0.149991 -0.065734 -0.047172 -0.014150 -0.118315 -0.088359 -0.299006 -0.103634 -0.269958 -0.003252 -0.163031 0.264088 0.178897 0.032814 -0.091144 0.032556 -0.187257 0.027872 -0.128182 0.150329 0.262599 0.118068 0.111697 0.109464 0.374010 0.082336 0.072667 0.308520 -0.070804 0.062454 -0.127473 -0.314407 -0.016971 -0.114250 -0.092068 0.094824 -0.223207 0.203497 -0.219306 0.309802 0.152581 0.366678 0.144980 0.026831 -0.070162 0.204437 0.045407 -0.040132 -0.004666 0.019378 -0.296577 -0.246704 0.068408 -0.110123 0.042220 -0.380380 -0.144895 -0.326627 0.233054 -0.357399 0.329673 -0.339421 -0.213999 0.098214 0.018854 -0.153166 -0.003197 0.102724 0.059500 0.148761 -0.265439 0.020327 -0.213290 -0.335775 0.070702 -0.038005 0.199327 0.502108 0.054661 -0.355546 -0.097096 -0.140445 -0.343250 0.246714 -0.029908 0.024419 0.197654 0.054983 -0.022335 0.162964 0.091850 0.065499 0.310432 -0.093102 0.116191 -0.128805 -0.263987 -0.309100 -0.129685 0.085887 0.243548 0.267028 0.066097 0.212116 -0.110610 -0.162952 0.034817 0.171844 -0.134967 -0.355302 0.100029 0.322037 0.235089 -0.229480 -0.010189 0.171858 -0.266513 -0.178529 -0.210293 -0.079917 -0.120749 0.072657 0.058810 -0.092192 -0.160350 0.263327 -0.146871 -0.390940 0.121950 -0.225670 -0.009884 0.274777 -0.046201 0.122515 0.213724 -0.049510 0.120352 0.281498 0.178623 0.254966 0.086722 0.032769 0.042153 -0.212893 0.202796 -0.134588 -0.043976 -0.019544 -0.102999 -0.159034 0.103523 -0.022975 0.034684 -0.053313 0.100268 0.103979 0.102234 -0.118710 -0.254666 0.033312 0.063394 0.012604 -0.062421 0.248509 0.070649 -0.207261 -0.180621 0.054566 -0.014029 -0.042569 0.150698 0.158455 -0.078143 0.232751 0.324364
plant 0.358122 0.136820 0.036244 0.061514 -0.156353 -0.027954 0.445138 -0.179888 0.280296 0.360141 -0.077836 0.052169 -0.145442 -0.096239 -0.192237 0.005281 -0.141850 -0.251046 0.001653 -0.054563 0.266052 0.170163 -0.219351 0.312326 0.228122 -0.465580 0.059232 0.262086 0.223235 -0.084987 0.132761 0.158239 0.123511 -0.082280 -0.112665 0.090599 0.032912 0.152975 -0.009806 -0.173998 0.064876 -0.143614 -0.026676 -0.439523 0.023628 0.121830 0.449938 0.437132 0.095333 -0.295760 -0.154882 -0.048358 0.010695 -0.107821 0.148625 -0.053304 0.134804 -0.115357 0.175820 -0.060414 0.164204 -0.077263 0.363649 -0.197932 0.143665 -0.023154 0.070134 -0.250669 -0.354553 0.108697 -0.054594 -0.256305 -0.181314 -0.001715 -0.076395 -0.383700 -0.165018 -0.200737 -0.145803 0.107749 0.292999 -0.021507 0.008247 0.276616 0.017223 -0.085767 0.047777 -0.148699 -0.130427 0.045334 -0.185124 -0.275454 0.427966 0.037419 0.013078 0.114171 0.073071 0.039699 -0.198399 -0.178821 0.132906 -0.247148 0.165041 0.057755 -0.084128 -0.092532 -0.277798 -0.008627 -0.387443 -0.205169 0.054375 0.139988 -0.241143 -0.041957 0.049960 -0.052740 0.141864 0.412557 0.090044 0.370928 0.146173 -0.120699 0.125380 0.001724 -0.251725 -0.057459 -0.097995 -0.093704 -0.029648 -0.138321 -0.166457 -0.076892 0.090320 -0.017662 -0.029475 0.038062 -0.000738 -0.281275 -0.117850 -0.029957 0.307026 0.112119 0.072779 -0.211556 -0.029534 0.104866 0.076413 0.007956 -0.025995 -0.030601 -0.038752 -0.234535 0.013108 -0.238955 0.062961 0.373559 -0.308737 0.037179 0.025762 0.106651 0.029815 0.126235 -0.114808 0.325578 -0.200999 0.110265 -0.039355 -0.081045 -0.216598 -0.092383 -0.005971 -0.050148 -0.157145 -0.043740 -0.086824 0.006048 -0.131682 0.016340 0.135993 0.008228 -0.181552 -0.029432 0.073968 -0.196075 0.120669 0.281956 -0.024381 0.222096 -0.020967 0.009072 -0.209076 -0.081544 0.026659 0.016859 -0.051563 0.126716 0.118074 -0.138947 -0.193872 -0.023603
plants 0.348558 0.200821 0.027607 0.039484 -0.182925 0.082297 0.481035 -0.345098 0.286259 0.461402 -0.149721 0.111887 -0.095086 -0.123930 -0.093506 -0.051384 0.050463 -0.310539 0.017436 -0.066897 0.168788 0.129244 -0.360552 0.002586 0.096723 -0.517870 -0.118101 0.196540 0.211941 -0.110402 0.158910 0.037064 0.111291 -0.070359 0.002409 -0.005080 0.174030 0.088108 0.072462 -0.069294 -0.000683 -0.254836 0.188904 -0.384133 0.129145 0.115255 0.367980 0.505554 -0.020651 -0.334499 -0.089508 0.047217 -0.011804 -0.010406 0.077708 -0.001312 0.116913 -0.119146 0.162292 0.004669 0.084346 -0.192652 0.315492 -0.286095 0.153658 0.278942 0.186199 -0.194345 -0.301246 0.062729 -0.048683 -0.243440 -0.307779 0.066309 -0.037692 -0.444627 -0.036867 -0.234577 -0.204111 -0.000768 0.122706 -0.173718 -0.159481 0.127768 -0.033815 0.108472 -0.139467 -0.149467 -0.206622 0.130384 -0.428571 -0.335903 0.203738 -0.016205 0.001268 -0.050634 0.107349 0.257977 -0.324867 -0.254167 0.064166 -0.286928 0.166282 -0.059711 -0.168685 -0.035423 -0.288355 -0.036777 -0.432117 -0.054316 0.040552 0.282457 -0.252293 0.096586 0.073496 -0.168588 0.188550 0.493118 0.069406 0.310919 0.168450 -0.125567 0.051128 0.001457 -0.252506 0.083775 0.050537 0.018223 -0.069381 -0.363285 -0.122490 0.077805 0.071834 0.116435 0.097036 0.071540 0.115627 -0.231888 -0.193176 0.030313 0.423164 0.059596 -0.041923 -0.359803 0.008042 0.089610 0.128789 -0.092387 -0.144405 -0.137753 -0.207080 -0.334351 0.070128 -0.359293 -0.027336 0.444704 -0.150799 0.214838 0.087515 0.186037 -0.074143 0.035226 -0.100769 0.339347 -0.023611 0.175374 -0.046835 0.023927 -0.186081 -0.080746 0.120529 -0.005704 -0.074284 -0.248393 -0.051258 -0.054815 -0.437305 -0.158001 -0.066354 0.063421 -0.108740 -0.012266 -0.005362 -0.381046 0.053986 0.189396 0.102162 0.326424 0.036229 -0.058164 -0.198906 -0.242899 -0.023456 -0.086862 0.017337 0.196801 0.072285 -0.260222 -0.153397 0.053913
pup -0.084287 -0.141090 0.057092 -0.039676 0.034085 0.218338 0.148068 0.058058 0.125279 -0.219529 0.105361 -0.004734 -0.262473 -0.124994 -0.102712 0.099051 0.205571 -0.097687 0.334700 0.278984 0.254383 0.124118 0.391539 -0.108347 0.138796 -0.138203 -0.006661 0.285787 0.182340 0.056997 -0.105198 -0.247574 -0.024082 -0.117861 0.042026 -0.319772 -0.043494 -0.096468 0.123644 -0.015104 0.131708 -0.109246 -0.161762 0.056486 0.088185 0.100665 -0.093063 0.200623 0.219222 0.247439 -0.251109 -0.118846 0.048786 0.190913 -0.002771 -0.392428 -0.124680 0.121411 0.084720 -0.011388 0.018051 -0.328030 0.218912 -0.227924 0.121419 0.057612 0.145840 -0.197481 0.254281 -0.264588 -0.017913 -0.137904 0.001381 -0.133722 0.139415 -0.321894 -0.002277 -0.041505 -0.319512 -0.008106 -0.305061 0.186193 -0.102426 0.022010 -0.055118 0.224132 -0.398506 0.237182 0.147742 0.241035 0.110615 0.101693 0.205642 -0.239413 0.411188 -0.107421 0.125564 -0.262719 -0.207678 0.111487 0.016908 -0.125131 0.344392 0.202272 -0.098319 -0.118474 0.187001 0.226479 0.154226 0.119255 0.185353 -0.002530 -0.090462 0.125756 0.229133 0.179046 0.053748 0.226110 0.039557 0.063523 0.110564 -0.235017 -0.186322 0.020727 -0.029143 0.041525 0.061338 0.168851 -0.048108 0.152863 0.061903 0.052066 0.077695 -0.157765 -0.064342 -0.091443 0.421649 -0.005992 0.031771 0.081781 0.074956 -0.174162 0.137964 -0.095942 -0.101360 0.065552 0.081271 -0.040235 -0.004501 -0.036578 -0.047243 -0.069204 -0.099387 0.019863 0.095710 0.103967 0.135804 -0.115678 -0.044745 -0.044224 0.015323 0.360051 0.294447 -0.010823 0.127805 0.153448 -0.054468 -0.064845 -0.052986 -0.149847 0.119476 0.137704 0.156947 -0.131168 -0.247884 -0.079574 0.049683 -0.013176 0.285902 -0.104138 0.288752 0.123072 -0.067412 -0.214607 -0.101190 0.175891 -0.086571 -0.050522 0.003569 0.201012 0.005355 0.068638 0.165874 0.080107 -0.282386 0.187417 -0.057660 -0.113850 0.014614 0.391544
pups -0.127361 0.005248 0.039652 -0.096096 -0.138672 0.366656 -0.007099 -0.120011 -0.159886 0.021223 0.027279 -0.077893 -0.050378 -0.182011 0.030814 0.233500 0.024716 -0.245224 0.291368 -0.011862 0.233481 0.235317 -0.002882 -0.162303 -0.245430 -0.143825 -0.070507 -0.069600 -0.042440 0.129000 0.054038 -0.212154 0.004808 -0.164803 0.059715 -0.336924 0.109201 0.315568 0.120148 0.062314 0.345646 -0.076836 -0.082871 -0.330468 0.147588 0.157231 0.032093 0.207617 -0.071256 0.313758 -0.082939 -0.028337 0.095671 -0.176471 -0.141127 -0.054478 -0.021982 0.000446 0.052469 0.053417 -0.029840 -0.448880 0.315518 -0.362979 0.274348 0.119026 0.267047 -0.232264 0.089887 -0.184087 0.032143 -0.135001 -0.157516 -0.117183 -0.156731 -0.156430 -0.031222 0.248086 -0.278745 -0.237912 -0.530960 0.072737 -0.253092 0.192695 -0.192314 0.406018 -0.458845 0.049776 0.281553 0.241213 -0.022320 -0.172998 0.122471 -0.445783 0.385081 -0.097641 0.031492 -0.126386 -0.456566 0.055004 0.252859 0.004909 0.430052 0.042743 -0.286909 -0.064979 0.120794 -0.315700 0.139489 0.030584 0.302983 0.361199 -0.261524 0.013952 0.325975 0.146182 -0.039636 0.553442 0.112600 -0.030224 0.130984 -0.092195 -0.202834 -0.100421 -0.216602 0.265277 0.363067 0.239149 0.170691 0.013566 -0.134531 0.119815 0.263592 -0.127604 -0.374067 -0.005128 0.274882 0.039022 -0.034615 0.082384 0.133727 -0.048889 0.030864 -0.534986 0.043120 -0.113836 -0.126976 -0.101839 -0.088909 0.080809 -0.336975 0.037286 -0.431706 -0.103307 0.085815 0.107617 0.166142 -0.129114 0.321918 0.113759 -0.074521 0.381238 0.300301 0.079849 0.062037 0.591750 -0.074412 0.095909 -0.008447 0.048330 0.118895 0.175304 -0.119014 -0.018687 -0.115657 0.177002 -0.098761 -0.087273 -0.058109 -0.035596 0.433820 0.203618 -0.161396 -0.393166 0.041252 -0.013699 -0.039405 0.174897 -0.055204 -0.025317 0.138786 -0.131637 -0.021093 -0.090991 -0.223302 0.350457 -0.162898 -0.167854 0.046064 0.241937
tiger 0.448788 0.359545 0.016567 -0.124582 -0.108997 0.053397 0.215305 0.116372 -0.146557 -0.416972 -0.036822 0.121765 0.020783 -0.287309 -0.081503 -0.254518 0.188452 0.316372 -0.159863 0.140236 0.113066 0.197211 -0.128397 0.178862 -0.167169 0.003198 0.128838 -0.213343 0.306442 0.006100 -0.023103 0.037525 -0.429408 -0.390614 0.076709 0.130522 0.425777 0.055878 0.409434 0.114964 -0.110771 -0.267649 0.264121 -0.297594 -0.066862 0.102174 0.171053 0.359563 0.142473 0.239601 0.134646 -0.116229 0.207057 -0.213000 -0.074495 0.095415 0.453993 0.338165 -0.047777 0.157731 -0.692440 -0.281022 0.374540 0.103880 -0.048658 0.311886 0.297529 -0.483372 -0.028308 -0.046901 -0.050708 -0.044105 0.237892 -0.375579 0.162046 -0.017468 -0.161905 0.311645 -0.137246 0.176215 -0.059346 0.327656 -0.390896 0.066829 0.129033 0.114196 -0.346459 0.185783 0.471144 0.083812 0.006976 -0.059785 0.041850 -0.023474 0.037843 -0.126514 -0.148171 -0.444962 0.156482 -0.207720 -0.053057 -0.134495 0.360726 -0.059690 -0.332233 -0.141552 -0.003005 -0.173474 0.061162 -0.104626 -0.027863 -0.032570 0.682225 0.155044 0.326228 0.405738 -0.290151 -0.261912 -0.274441 -0.135273 0.309154 0.301514 0.113874 -0.157620 0.062616 0.082604 0.438131 0.148305 0.007852 -0.416509 0.074456 -0.110720 -0.315799 -0.094964 -0.199803 0.287992 0.297143 0.251027 0.214493 -0.336292 0.047546 -0.028807 0.077762 0.211243 -0.419208 -0.351080 -0.063793 0.212582 0.158508 0.127144 0.220341 0.359648 -0.173625 0.112818 0.013650 -0.034725 0.267799 -0.438398 -0.264807 -0.156801 -0.088176 -0.051143 0.753345 0.049304 -0.111520 0.113553 0.069380 -0.129895 0.107672 -0.108855 -0.250207 -0.021333 0.099701 -0.105588 0.080926 0.182684 0.237912 0.074347 0.164775 0.202333 0.016326 -0.083168 0.198856 -0.361489 0.211906 0.077777 0.078349 0.116635 0.163652 -0.266128 0.045706 -0.035578 -0.066677 0.143072 0.332483 0.153509 0.071050 -0.010529 0.178902 0.421808
tigers 0.189269 0.632349 0.061696 -0.358194 0.011538 -0.048858 0.247297 0.449481 -0.219781 0.044086 0.043007 0.181709 -0.315426 -0.003351 -0.306735 -0.276966 -0.029144 0.154789 -0.008351 -0.077838 -0.001589 0.225071 -0.381700 0.228875 0.002444 0.101459 -0.399574 -0.190234 -0.012525 -0.014099 -0.108598 -0.238680 -0.112713 -0.540691 -0.125814 0.052105 0.093924 -0.033119 0.134335 -0.175821 -0.055339 0.033178 0.195792 -0.468589 0.144176 0.147243 0.210213 0.162026 -0.055876 0.387324 0.161653 0.139003 0.185532 -0.392139 0.111760 0.185338 0.130194 0.473195 -0.111563 0.260996 -0.344934 -0.372389 0.557893 -0.013811 -0.261491 0.272862 0.012487 -0.178446 0.102114 -0.229318 -0.055397 0.076639 0.341710 -0.457044 0.026768 -0.413428 -0.310169 -0.004990 0.196932 0.029777 -0.162078 -0.014089 -0.137472 0.197660 -0.232820 0.226010 -0.491201 0.063752 0.014112 0.238514 -0.074066 -0.333957 0.101232 0.272561 0.090036 0.180710 0.001595 -0.279974 -0.111642 -0.204619 -0.029620 0.193830 0.333577 -0.015621 -0.191138 -0.227811 -0.103260 0.017918 0.036201 -0.035870 -0.096876 0.103989 0.382893 0.265220 0.110012 0.337627 0.353873 -0.207091 -0.166050 -0.003713 0.233646 -0.167069 0.022471 0.052389 0.013182 0.218842 0.289006 0.129631 0.245264 -0.340706 -0.258364 -0.065523 0.291912 0.004501 -0.102456 -0.140112 0.105526 0.451144 0.144763 -0.226684 -0.026286 -0.109851 0.161837 0.287237 -0.697668 -0.284212 0.170588 0.263945 -0.227214 0.145998 0.013463 0.557573 -0.197327 0.251259 -0.010943 0.067260 0.130314 -0.432234 -0.097839 -0.352810 -0.200009 0.152684 0.568501 -0.020899 0.006549 0.144240 0.006437 0.145033 0.128632 0.070187 0.065065 0.023182 0.139500 -0.251135 -0.014495 0.498696 0.344411 -0.180357 0.005087 0.119680 -0.265260 -0.072503 0.063748 0.119247 0.229646 0.001165 -0.105354 0.047643 0.829206 -0.145679 -0.111665 -0.188038 -0.243720 0.050669 0.120005 0.330449 0.118930 -0.383167 0.496807 0.235384
